{"learner":{"attributes":{"best_iteration":"488","best_score":"0.03073441691686542"},"feature_names":["Global_reactive_power","Voltage","Global_intensity","Sub_metering_1","Sub_metering_2","Sub_metering_3","lag1h","lag2h","lag3h","lag24h","lag7d","rolling_mean_1h","rolling_mean_24h","rolling_mean_7d","rolling_std_1h","rolling_min_1h","rolling_max_1h","rolling_std_24h","rolling_min_24h","rolling_max_24h","rolling_std_7d","rolling_min_7d","rolling_max_7d"],"feature_types":["float","float","float","float","float","float","float","float","float","float","float","float","float","float","float","float","float","float","float","float","float","float","float"],"gradient_booster":{"model":{"gbtree_model_param":{"num_parallel_tree":"1","num_trees":"500"},"iteration_indptr":[0,1,2,3,4,5,6,7,8,9,10,11,12,13,14,15,16,17,18,19,20,21,22,23,24,25,26,27,28,29,30,31,32,33,34,35,36,37,38,39,40,41,42,43,44,45,46,47,48,49,50,51,52,53,54,55,56,57,58,59,60,61,62,63,64,65,66,67,68,69,70,71,72,73,74,75,76,77,78,79,80,81,82,83,84,85,86,87,88,89,90,91,92,93,94,95,96,97,98,99,100,101,102,103,104,105,106,107,108,109,110,111,112,113,114,115,116,117,118,119,120,121,122,123,124,125,126,127,128,129,130,131,132,133,134,135,136,137,138,139,140,141,142,143,144,145,146,147,148,149,150,151,152,153,154,155,156,157,158,159,160,161,162,163,164,165,166,167,168,169,170,171,172,173,174,175,176,177,178,179,180,181,182,183,184,185,186,187,188,189,190,191,192,193,194,195,196,197,198,199,200,201,202,203,204,205,206,207,208,209,210,211,212,213,214,215,216,217,218,219,220,221,222,223,224,225,226,227,228,229,230,231,232,233,234,235,236,237,238,239,240,241,242,243,244,245,246,247,248,249,250,251,252,253,254,255,256,257,258,259,260,261,262,263,264,265,266,267,268,269,270,271,272,273,274,275,276,277,278,279,280,281,282,283,284,285,286,287,288,289,290,291,292,293,294,295,296,297,298,299,300,301,302,303,304,305,306,307,308,309,310,311,312,313,314,315,316,317,318,319,320,321,322,323,324,325,326,327,328,329,330,331,332,333,334,335,336,337,338,339,340,341,342,343,344,345,346,347,348,349,350,351,352,353,354,355,356,357,358,359,360,361,362,363,364,365,366,367,368,369,370,371,372,373,374,375,376,377,378,379,380,381,382,383,384,385,386,387,388,389,390,391,392,393,394,395,396,397,398,399,400,401,402,403,404,405,406,407,408,409,410,411,412,413,414,415,416,417,418,419,420,421,422,423,424,425,426,427,428,429,430,431,432,433,434,435,436,437,438,439,440,441,442,443,444,445,446,447,448,449,450,451,452,453,454,455,456,457,458,459,460,461,462,463,464,465,466,467,468,469,470,471,472,473,474,475,476,477,478,479,480,481,482,483,484,485,486,487,488,489,490,491,492,493,494,495,496,497,498,499,500],"tree_info":[0,0,0,0,0,0,0,0,0,0,0,0,0,0,0,0,0,0,0,0,0,0,0,0,0,0,0,0,0,0,0,0,0,0,0,0,0,0,0,0,0,0,0,0,0,0,0,0,0,0,0,0,0,0,0,0,0,0,0,0,0,0,0,0,0,0,0,0,0,0,0,0,0,0,0,0,0,0,0,0,0,0,0,0,0,0,0,0,0,0,0,0,0,0,0,0,0,0,0,0,0,0,0,0,0,0,0,0,0,0,0,0,0,0,0,0,0,0,0,0,0,0,0,0,0,0,0,0,0,0,0,0,0,0,0,0,0,0,0,0,0,0,0,0,0,0,0,0,0,0,0,0,0,0,0,0,0,0,0,0,0,0,0,0,0,0,0,0,0,0,0,0,0,0,0,0,0,0,0,0,0,0,0,0,0,0,0,0,0,0,0,0,0,0,0,0,0,0,0,0,0,0,0,0,0,0,0,0,0,0,0,0,0,0,0,0,0,0,0,0,0,0,0,0,0,0,0,0,0,0,0,0,0,0,0,0,0,0,0,0,0,0,0,0,0,0,0,0,0,0,0,0,0,0,0,0,0,0,0,0,0,0,0,0,0,0,0,0,0,0,0,0,0,0,0,0,0,0,0,0,0,0,0,0,0,0,0,0,0,0,0,0,0,0,0,0,0,0,0,0,0,0,0,0,0,0,0,0,0,0,0,0,0,0,0,0,0,0,0,0,0,0,0,0,0,0,0,0,0,0,0,0,0,0,0,0,0,0,0,0,0,0,0,0,0,0,0,0,0,0,0,0,0,0,0,0,0,0,0,0,0,0,0,0,0,0,0,0,0,0,0,0,0,0,0,0,0,0,0,0,0,0,0,0,0,0,0,0,0,0,0,0,0,0,0,0,0,0,0,0,0,0,0,0,0,0,0,0,0,0,0,0,0,0,0,0,0,0,0,0,0,0,0,0,0,0,0,0,0,0,0,0,0,0,0,0,0,0,0,0,0,0,0,0,0,0,0,0,0,0,0,0,0,0,0,0,0,0,0,0,0,0,0,0,0,0,0,0,0,0,0,0,0,0,0,0,0,0,0,0,0,0,0,0,0,0,0,0,0,0,0,0,0,0,0,0,0,0,0,0],"trees":[{"base_weights":[-5.3241103E-5,-5.537152E-1,9.230447E-1,-7.6959515E-1,-1.4212337E-1,5.868617E-1,1.73841E0,-8.110826E-1,-5.6535834E-1,9.981103E-2,-4.7393525E-1,5.36471E-1,2.6310267E0,1.5412043E0,3.3907437E0,-8.464525E-1,-6.956758E-1,-6.118758E-1,-2.8467584E-1,6.0513757E-2,2.0680282E0,-5.805912E-1,-3.2297045E-2,3.599904E-1,7.65137E-1,2.273164E0,3.8592088E0,2.0886788E0,1.2202308E0,3.1733015E0,5.268858E0,-9.0903574E-1,-8.1108E-1,-7.2018343E-1,-5.628867E-1,-6.494863E-1,-5.2348465E-1,-3.6066136E-1,-2.2515375E-2,3.351192E-3,9.636736E-1,1.5318124E0,2.9405928E0,-5.995205E-1,1.7950414E0,1.387127E-1,-1.9214483E-1,6.96677E-1,2.9341495E-1,1.0486048E0,5.827314E-1,1.4254441E0,2.4745867E0,3.3781338E0,4.9102793E0,1.8586391E0,2.7524667E0,8.9614856E-1,1.5944213E0,3.8307667E0,2.8064585E0,4.743985E0,6.1157007E0,-9.678996E-2,-8.6989366E-2,-8.518247E-2,-7.7638246E-2,-8.096634E-2,-6.9880344E-2,-6.4134665E-2,-4.1283343E-2,-6.8530716E-2,-5.9622254E-2,-5.5608142E-2,-4.432466E-2,-4.536236E-2,-3.1368244E-2,-1.1434729E-2,7.719268E-3,2.2993444E-2,-1.5717E-2,7.682439E-2,2.077127E-1,1.3406835E-1,1.7737171E-1,2.605437E-1,3.799836E-1,-7.2530285E-2,-4.451995E-2,1.4404152E-1,3.052028E-1,8.910232E-3,8.200896E-2,-2.9039294E-2,5.591742E-3,9.832161E-2,4.9789347E-2,-2.1329109E-2,3.7600208E-2,8.855698E-2,1.3234757E-1,3.3186823E-2,6.885851E-2,1.1740887E-1,1.6363202E-1,1.9302328E-1,2.6252267E-1,3.766183E-1,2.7247688E-1,4.6294984E-1,6.0298026E-1,1.580333E-1,2.0748822E-1,3.4901223E-1,2.5151974E-1,1.2867402E-1,6.601757E-2,1.4853233E-1,2.1680371E-1,3.3004808E-1,4.5355082E-1,2.43364E-1,3.0555752E-1,3.9199352E-1,4.948686E-1,6.5355885E-1,5.5658585E-1],"categories":[],"categories_nodes":[],"categories_segments":[],"categories_sizes":[],"default_left":[0,0,0,0,0,0,0,0,0,0,0,0,0,0,0,0,0,0,0,0,0,0,0,0,0,0,0,0,0,0,0,0,0,0,0,0,0,0,0,0,0,0,0,0,0,0,0,0,0,0,0,0,0,0,0,0,0,0,0,0,0,0,0,0,0,0,0,0,0,0,0,0,0,0,0,0,0,0,0,0,0,0,0,0,0,0,0,0,0,0,0,0,0,0,0,0,0,0,0,0,0,0,0,0,0,0,0,0,0,0,0,0,0,0,0,0,0,0,0,0,0,0,0,0,0,0,0],"id":0,"left_children":[1,3,5,7,9,11,13,15,17,19,21,23,25,27,29,31,33,35,37,39,41,43,45,47,49,51,53,55,57,59,61,63,65,67,69,71,73,75,77,79,81,83,85,87,89,91,93,95,97,99,101,103,105,107,109,111,113,115,117,119,121,123,125,-1,-1,-1,-1,-1,-1,-1,-1,-1,-1,-1,-1,-1,-1,-1,-1,-1,-1,-1,-1,-1,-1,-1,-1,-1,-1,-1,-1,-1,-1,-1,-1,-1,-1,-1,-1,-1,-1,-1,-1,-1,-1,-1,-1,-1,-1,-1,-1,-1,-1,-1,-1,-1,-1,-1,-1,-1,-1,-1,-1,-1,-1,-1,-1],"loss_changes":[6.751136E5,7.3366984E4,1.3575125E5,4.5888125E3,2.2805133E4,3.6119414E4,4.7106438E4,1.8369688E3,1.1938379E3,1.2707133E4,5.64249E3,1.3810422E4,3.6990234E3,2.2695312E4,6.2784688E3,7.6203125E2,3.4328125E2,2.6045508E2,2.5901697E2,8.315908E3,1.500206E3,4.3400527E3,6.3702655E2,4.329422E3,7.707367E3,1.1123242E3,9.451465E2,7.284375E3,9.873453E3,3.3219688E3,6.8127734E2,2.8582812E2,3.1057812E2,1.6998828E2,1.9351025E2,1.0458008E2,6.1010742E1,4.3884033E1,2.6772928E1,5.5099414E3,2.0847705E3,8.981494E1,3.422998E2,1.8578008E3,3.35719E2,3.805191E2,2.935727E2,1.8158262E3,6.7488115E3,2.614414E3,2.4085E3,6.470581E1,4.2781836E2,3.2136523E2,1.5911719E2,2.130461E3,2.1412031E3,4.0213164E3,2.3618125E3,1.8334219E3,8.1664844E2,1.4776562E2,1.0399414E2,0E0,0E0,0E0,0E0,0E0,0E0,0E0,0E0,0E0,0E0,0E0,0E0,0E0,0E0,0E0,0E0,0E0,0E0,0E0,0E0,0E0,0E0,0E0,0E0,0E0,0E0,0E0,0E0,0E0,0E0,0E0,0E0,0E0,0E0,0E0,0E0,0E0,0E0,0E0,0E0,0E0,0E0,0E0,0E0,0E0,0E0,0E0,0E0,0E0,0E0,0E0,0E0,0E0,0E0,0E0,0E0,0E0,0E0,0E0,0E0,0E0,0E0,0E0,0E0],"parents":[2147483647,0,0,1,1,2,2,3,3,4,4,5,5,6,6,7,7,8,8,9,9,10,10,11,11,12,12,13,13,14,14,15,15,16,16,17,17,18,18,19,19,20,20,21,21,22,22,23,23,24,24,25,25,26,26,27,27,28,28,29,29,30,30,31,31,32,32,33,33,34,34,35,35,36,36,37,37,38,38,39,39,40,40,41,41,42,42,43,43,44,44,45,45,46,46,47,47,48,48,49,49,50,50,51,51,52,52,53,53,54,54,55,55,56,56,57,57,58,58,59,59,60,60,61,61,62,62],"right_children":[2,4,6,8,10,12,14,16,18,20,22,24,26,28,30,32,34,36,38,40,42,44,46,48,50,52,54,56,58,60,62,64,66,68,70,72,74,76,78,80,82,84,86,88,90,92,94,96,98,100,102,104,106,108,110,112,114,116,118,120,122,124,126,-1,-1,-1,-1,-1,-1,-1,-1,-1,-1,-1,-1,-1,-1,-1,-1,-1,-1,-1,-1,-1,-1,-1,-1,-1,-1,-1,-1,-1,-1,-1,-1,-1,-1,-1,-1,-1,-1,-1,-1,-1,-1,-1,-1,-1,-1,-1,-1,-1,-1,-1,-1,-1,-1,-1,-1,-1,-1,-1,-1,-1,-1,-1,-1],"split_conditions":[1.3087E0,1.298E0,2.3428333E0,4.1523334E-1,1.152E0,2.7E1,2.7E1,1.6139689E-1,5.14E-1,2.4E1,4.34E-1,1.7091666E0,5.254E0,2.3799E2,5E1,1.76E-1,2.84E-1,1.52E-1,8.28E-1,4.432E0,3.572E0,1.7E1,2.4014E2,1.184E0,2.3904E2,3.426E0,6E1,3.4649334E0,1.698E0,2.3588E2,7.242E0,4.6E-2,6E-2,3.92E-1,9.48E-1,5.058E-1,5.342E-1,7.003667E-1,1.1018E0,2.402E2,5.686E0,2.842E0,4.898E0,1.726E0,3.718E0,3.072E0,7.26E-1,2.3895E2,5.6E-1,3.91E0,9.88E-1,3.4E1,3.4E1,2.3764E2,6.862E0,4.482E0,2.3414E2,1.894E0,2.514E0,6.416E0,3.5E1,5.788E0,2.3455E2,-9.678996E-2,-8.6989366E-2,-8.518247E-2,-7.7638246E-2,-8.096634E-2,-6.9880344E-2,-6.4134665E-2,-4.1283343E-2,-6.8530716E-2,-5.9622254E-2,-5.5608142E-2,-4.432466E-2,-4.536236E-2,-3.1368244E-2,-1.1434729E-2,7.719268E-3,2.2993444E-2,-1.5717E-2,7.682439E-2,2.077127E-1,1.3406835E-1,1.7737171E-1,2.605437E-1,3.799836E-1,-7.2530285E-2,-4.451995E-2,1.4404152E-1,3.052028E-1,8.910232E-3,8.200896E-2,-2.9039294E-2,5.591742E-3,9.832161E-2,4.9789347E-2,-2.1329109E-2,3.7600208E-2,8.855698E-2,1.3234757E-1,3.3186823E-2,6.885851E-2,1.1740887E-1,1.6363202E-1,1.9302328E-1,2.6252267E-1,3.766183E-1,2.7247688E-1,4.6294984E-1,6.0298026E-1,1.580333E-1,2.0748822E-1,3.4901223E-1,2.5151974E-1,1.2867402E-1,6.601757E-2,1.4853233E-1,2.1680371E-1,3.3004808E-1,4.5355082E-1,2.43364E-1,3.0555752E-1,3.9199352E-1,4.948686E-1,6.5355885E-1,5.5658585E-1],"split_indices":[11,16,11,11,6,4,4,0,15,4,15,11,16,1,4,15,0,0,15,16,16,4,1,6,1,16,4,11,15,1,16,0,0,16,16,11,11,11,11,1,16,16,16,16,16,16,15,1,15,16,15,4,4,1,16,16,1,6,15,16,4,16,1,0,0,0,0,0,0,0,0,0,0,0,0,0,0,0,0,0,0,0,0,0,0,0,0,0,0,0,0,0,0,0,0,0,0,0,0,0,0,0,0,0,0,0,0,0,0,0,0,0,0,0,0,0,0,0,0,0,0,0,0,0,0,0,0],"split_type":[0,0,0,0,0,0,0,0,0,0,0,0,0,0,0,0,0,0,0,0,0,0,0,0,0,0,0,0,0,0,0,0,0,0,0,0,0,0,0,0,0,0,0,0,0,0,0,0,0,0,0,0,0,0,0,0,0,0,0,0,0,0,0,0,0,0,0,0,0,0,0,0,0,0,0,0,0,0,0,0,0,0,0,0,0,0,0,0,0,0,0,0,0,0,0,0,0,0,0,0,0,0,0,0,0,0,0,0,0,0,0,0,0,0,0,0,0,0,0,0,0,0,0,0,0,0,0],"sum_hessian":[1.320942E6,8.25699E5,4.95243E5,5.41619E5,2.8408E5,3.50663E5,1.4458E5,4.50171E5,9.1448E4,1.64291E5,1.19789E5,3.42228E5,8.435E3,1.29166E5,1.5414E4,3.44563E5,1.05608E5,7.8446E4,1.3002E4,1.61076E5,3.215E3,9.6487E4,2.3302E4,1.93156E5,1.49072E5,6.534E3,1.901E3,4.7737E4,8.1429E4,1.3817E4,1.597E3,1.24415E5,2.20148E5,8.915E4,1.6458E4,5.5026E4,2.342E4,1.008E4,2.922E3,1.51489E5,9.587E3,1.993E3,1.222E3,9.5725E4,7.62E2,1.1258E4,1.2044E4,3.1887E4,1.61269E5,5.8365E4,9.0707E4,1.256E3,5.278E3,1.307E3,5.94E2,3.5454E4,1.2283E4,4.3638E4,3.7791E4,4.945E3,8.872E3,9.9E2,6.07E2,4.968E4,7.4735E4,1.0124E5,1.18908E5,1.7186E4,7.1964E4,1.0805E4,5.653E3,3.2893E4,2.2133E4,1.665E4,6.77E3,3.381E3,6.699E3,1.521E3,1.401E3,6.2818E4,8.8671E4,8.157E3,1.43E3,1.117E3,8.76E2,8.82E2,3.4E2,5.2737E4,4.2988E4,5.96E2,1.66E2,1.0495E4,7.63E2,8.627E3,3.417E3,1.3059E4,1.8828E4,2.2601E4,1.38668E5,3.6638E4,2.1727E4,2.6918E4,6.3789E4,5.76E2,6.8E2,1.147E3,4.131E3,8.17E2,4.9E2,4.79E2,1.15E2,1.5506E4,1.9948E4,2.986E3,9.297E3,1.6433E4,2.7205E4,3.1755E4,6.036E3,2.825E3,2.12E3,3.558E3,5.314E3,2.01E2,7.89E2,3.38E2,2.69E2],"tree_param":{"num_deleted":"0","num_feature":"23","num_nodes":"127","size_leaf_vector":"1"}},{"base_weights":[1.74724E-4,-3.7014595E-1,1.7612689E0,-6.9645125E-1,2.8345707E-1,1.273224E0,3.051247E0,-7.512619E-1,-4.545672E-1,1.5817489E-1,4.7383928E-1,9.922844E-1,1.6766546E0,2.6477783E0,4.2625866E0,-8.312995E-1,-7.034667E-1,-5.318951E-1,-3.1455103E-1,-5.0484832E-2,2.158662E-1,3.9263904E-1,5.849649E-1,8.40922E-1,1.163388E0,1.5083692E0,1.9224684E0,2.4312565E0,3.0572653E0,3.9261954E0,5.3088627E0,-8.950792E-1,-8.130785E-1,-7.279857E-1,-6.407614E-1,-5.654372E-1,-4.7221246E-1,-3.8196E-1,-2.6110265E-1,-1.3138136E-1,1.9871091E-2,1.4666483E-1,2.5167024E-1,3.5597423E-1,4.4350412E-1,5.2891284E-1,6.331617E-1,7.6463276E-1,9.124711E-1,1.0789537E0,1.2323183E0,1.4133651E0,1.6043289E0,1.8208137E0,2.0427308E0,2.304501E0,2.5836182E0,2.899898E0,3.2414262E0,3.6834166E0,4.240934E0,4.9108686E0,6.0793357E0,-9.16824E-2,-8.7811075E-2,-8.063375E-2,-8.446043E-2,-7.57553E-2,-7.1340196E-2,-6.321443E-2,-6.7638695E-2,-5.5174764E-2,-6.1183482E-2,-4.5937415E-2,-5.2059215E-2,-3.4214236E-2,-4.0809717E-2,-2.7979363E-2,-1.7897183E-2,-1.0035E-2,-1.673706E-2,-1.3656662E-3,6.1990353E-3,1.5729798E-2,9.617715E-3,2.1187522E-2,2.7435794E-2,3.1826835E-2,3.7164506E-2,4.0298074E-2,4.6233412E-2,4.8531752E-2,5.5023897E-2,5.9285887E-2,6.555298E-2,7.830747E-2,7.0691936E-2,8.740289E-2,9.5620155E-2,1.03766255E-1,1.108762E-1,1.18996345E-1,1.279026E-1,1.372502E-1,1.4587717E-1,1.5629458E-1,1.6749202E-1,1.7783473E-1,1.892203E-1,1.9976908E-1,2.11098E-1,2.2592698E-1,2.4241555E-1,2.5010598E-1,2.658264E-1,2.814366E-1,2.976772E-1,3.1645727E-1,3.3605236E-1,3.5714838E-1,3.8251615E-1,4.1150466E-1,4.4191304E-1,4.7934458E-1,5.214609E-1,5.6459713E-1,6.5079933E-1],"categories":[],"categories_nodes":[],"categories_segments":[],"categories_sizes":[],"default_left":[0,0,0,0,0,0,0,0,0,0,0,0,0,0,0,0,0,0,0,0,0,0,0,0,0,0,0,0,0,0,0,0,0,0,0,0,0,0,0,0,0,0,0,0,0,0,0,0,0,0,0,0,0,0,0,0,0,0,0,0,0,0,0,0,0,0,0,0,0,0,0,0,0,0,0,0,0,0,0,0,0,0,0,0,0,0,0,0,0,0,0,0,0,0,0,0,0,0,0,0,0,0,0,0,0,0,0,0,0,0,0,0,0,0,0,0,0,0,0,0,0,0,0,0,0,0,0],"id":1,"left_children":[1,3,5,7,9,11,13,15,17,19,21,23,25,27,29,31,33,35,37,39,41,43,45,47,49,51,53,55,57,59,61,63,65,67,69,71,73,75,77,79,81,83,85,87,89,91,93,95,97,99,101,103,105,107,109,111,113,115,117,119,121,123,125,-1,-1,-1,-1,-1,-1,-1,-1,-1,-1,-1,-1,-1,-1,-1,-1,-1,-1,-1,-1,-1,-1,-1,-1,-1,-1,-1,-1,-1,-1,-1,-1,-1,-1,-1,-1,-1,-1,-1,-1,-1,-1,-1,-1,-1,-1,-1,-1,-1,-1,-1,-1,-1,-1,-1,-1,-1,-1,-1,-1,-1,-1,-1,-1],"loss_changes":[8.6212444E5,2.3294994E5,1.4459381E5,9.6585E3,8.675123E3,1.8884812E4,3.080025E4,2.2715E3,1.4570703E3,2.6406943E3,1.3023281E3,2.5431328E3,2.8267344E3,4.1857812E3,5.5225E3,2.5734375E2,5.712969E2,1.7330273E2,1.7243604E2,2.7043658E2,4.2575586E2,1.5539941E2,1.643086E2,2.8383203E2,2.6701562E2,3.6796094E2,3.3607812E2,5.916094E2,4.645625E2,8.953594E2,1.1442891E3,1.7398438E1,3.603125E1,1.1475E2,3.1667969E1,3.4916016E1,1.9140625E1,2.1898682E1,4.0957275E1,2.4666626E1,3.5889587E1,3.144336E1,1.0219385E2,2.8524902E1,2.6470703E1,2.5935059E1,2.914746E1,2.630371E1,4.4378906E1,2.4365234E1,4.8683594E1,3.5878906E1,5.6378906E1,4.233203E1,3.4898438E1,8.597656E1,7.9890625E1,4.9671875E1,5.8257812E1,9.325E1,9.8125E1,6.5234375E1,2.0475E2,0E0,0E0,0E0,0E0,0E0,0E0,0E0,0E0,0E0,0E0,0E0,0E0,0E0,0E0,0E0,0E0,0E0,0E0,0E0,0E0,0E0,0E0,0E0,0E0,0E0,0E0,0E0,0E0,0E0,0E0,0E0,0E0,0E0,0E0,0E0,0E0,0E0,0E0,0E0,0E0,0E0,0E0,0E0,0E0,0E0,0E0,0E0,0E0,0E0,0E0,0E0,0E0,0E0,0E0,0E0,0E0,0E0,0E0,0E0,0E0,0E0,0E0,0E0,0E0],"parents":[2147483647,0,0,1,1,2,2,3,3,4,4,5,5,6,6,7,7,8,8,9,9,10,10,11,11,12,12,13,13,14,14,15,15,16,16,17,17,18,18,19,19,20,20,21,21,22,22,23,23,24,24,25,25,26,26,27,27,28,28,29,29,30,30,31,31,32,32,33,33,34,34,35,35,36,36,37,37,38,38,39,39,40,40,41,41,42,42,43,43,44,44,45,45,46,46,47,47,48,48,49,49,50,50,51,51,52,52,53,53,54,54,55,55,56,56,57,57,58,58,59,59,60,60,61,61,62,62],"right_children":[2,4,6,8,10,12,14,16,18,20,22,24,26,28,30,32,34,36,38,40,42,44,46,48,50,52,54,56,58,60,62,64,66,68,70,72,74,76,78,80,82,84,86,88,90,92,94,96,98,100,102,104,106,108,110,112,114,116,118,120,122,124,126,-1,-1,-1,-1,-1,-1,-1,-1,-1,-1,-1,-1,-1,-1,-1,-1,-1,-1,-1,-1,-1,-1,-1,-1,-1,-1,-1,-1,-1,-1,-1,-1,-1,-1,-1,-1,-1,-1,-1,-1,-1,-1,-1,-1,-1,-1,-1,-1,-1,-1,-1,-1,-1,-1,-1,-1,-1,-1,-1,-1,-1,-1,-1,-1],"split_conditions":[7.866667E0,4E0,1.46E1,2.1564984E0,6.025287E0,1.08E1,2.04E1,1.2E0,3E0,5.087356E0,6.864537E0,9.4E0,1.26E1,1.72E1,2.58E1,8E-1,1.6283566E0,2.6E0,3.4E0,4.6E0,5.6E0,6.6E0,7.280831E0,8.6E0,1E1,1.16E1,1.36E1,1.58E1,1.86E1,2.28E1,2.98E1,1.2E-1,1.246E0,1.2529538E0,1.774E0,2.76E-1,2.56E-1,1.298E0,9.791374E0,1.83E0,5E0,1.7091666E0,5.8E0,2.3904E2,2.3904E2,2.3899E2,2.3904E2,2.3428333E0,9E0,2.3899E2,1.04E1,1.12E1,1.22E1,1.32E1,1.42E1,3.7E1,1.64E1,1.78E1,1.96E1,2.16E1,2.44E1,2.8E1,3.26E1,-9.16824E-2,-8.7811075E-2,-8.063375E-2,-8.446043E-2,-7.57553E-2,-7.1340196E-2,-6.321443E-2,-6.7638695E-2,-5.5174764E-2,-6.1183482E-2,-4.5937415E-2,-5.2059215E-2,-3.4214236E-2,-4.0809717E-2,-2.7979363E-2,-1.7897183E-2,-1.0035E-2,-1.673706E-2,-1.3656662E-3,6.1990353E-3,1.5729798E-2,9.617715E-3,2.1187522E-2,2.7435794E-2,3.1826835E-2,3.7164506E-2,4.0298074E-2,4.6233412E-2,4.8531752E-2,5.5023897E-2,5.9285887E-2,6.555298E-2,7.830747E-2,7.0691936E-2,8.740289E-2,9.5620155E-2,1.03766255E-1,1.108762E-1,1.18996345E-1,1.279026E-1,1.372502E-1,1.4587717E-1,1.5629458E-1,1.6749202E-1,1.7783473E-1,1.892203E-1,1.9976908E-1,2.11098E-1,2.2592698E-1,2.4241555E-1,2.5010598E-1,2.658264E-1,2.814366E-1,2.976772E-1,3.1645727E-1,3.3605236E-1,3.5714838E-1,3.8251615E-1,4.1150466E-1,4.4191304E-1,4.7934458E-1,5.214609E-1,5.6459713E-1,6.5079933E-1],"split_indices":[2,2,2,2,2,2,2,2,2,2,2,2,2,2,2,2,2,2,2,2,2,2,2,2,2,2,2,2,2,2,2,15,16,2,16,0,0,16,5,16,2,11,2,1,1,1,1,11,2,1,2,2,2,2,2,3,2,2,2,2,2,2,2,0,0,0,0,0,0,0,0,0,0,0,0,0,0,0,0,0,0,0,0,0,0,0,0,0,0,0,0,0,0,0,0,0,0,0,0,0,0,0,0,0,0,0,0,0,0,0,0,0,0,0,0,0,0,0,0,0,0,0,0,0,0,0,0],"split_type":[0,0,0,0,0,0,0,0,0,0,0,0,0,0,0,0,0,0,0,0,0,0,0,0,0,0,0,0,0,0,0,0,0,0,0,0,0,0,0,0,0,0,0,0,0,0,0,0,0,0,0,0,0,0,0,0,0,0,0,0,0,0,0,0,0,0,0,0,0,0,0,0,0,0,0,0,0,0,0,0,0,0,0,0,0,0,0,0,0,0,0,0,0,0,0,0,0,0,0,0,0,0,0,0,0,0,0,0,0,0,0,0,0,0,0,0,0,0,0,0,0,0,0,0,0,0,0],"sum_hessian":[1.321931E6,1.092254E6,2.29677E5,7.28538E5,3.63716E5,1.66635E5,6.3042E4,5.93948E5,1.3459E5,2.19364E5,1.44352E5,9.8232E4,6.8403E4,4.7293E4,1.5749E4,2.22064E5,3.71884E5,8.6703E4,4.7887E4,4.7514E4,1.7185E5,8.3409E4,6.0943E4,5.2126E4,4.6106E4,4.0609E4,2.7794E4,3.094E4,1.6353E4,1.1921E4,3.828E3,4.9333E4,1.72731E5,2.67339E5,1.04545E5,5.5502E4,3.1201E4,2.1175E4,2.6712E4,2.2101E4,2.5413E4,5.8598E4,1.13252E5,4.8475E4,3.4934E4,2.8181E4,3.2762E4,2.5233E4,2.6893E4,2.073E4,2.5376E4,2.0414E4,2.0195E4,1.5071E4,1.2723E4,1.6898E4,1.4042E4,8.827E3,7.526E3,6.737E3,5.184E3,2.529E3,1.299E3,2.16E4,2.7733E4,1.42325E5,3.0406E4,8.8289E4,1.7905E5,8.4198E4,2.0347E4,4.2867E4,1.2635E4,2.4666E4,6.535E3,8.397E3,1.2778E4,2.1758E4,4.954E3,1.187E4,1.0231E4,1.415E4,1.1263E4,4.8402E4,1.0196E4,4.1126E4,7.2126E4,1.4238E4,3.4237E4,1.109E4,2.3844E4,9.265E3,1.8916E4,1.1703E4,2.1059E4,1.9113E4,6.12E3,1.4323E4,1.257E4,8.706E3,1.2024E4,1.3322E4,1.2054E4,1.0761E4,9.653E3,1.2746E4,7.449E3,9.466E3,5.605E3,7.683E3,5.04E3,1.2277E4,4.621E3,6.684E3,7.358E3,4.196E3,4.631E3,4.591E3,2.935E3,3.779E3,2.958E3,3.052E3,2.132E3,1.836E3,6.93E2,6.53E2,6.46E2],"tree_param":{"num_deleted":"0","num_feature":"23","num_nodes":"127","size_leaf_vector":"1"}},{"base_weights":[-1.2791119E-4,-4.3319723E-1,7.71353E-1,-5.582966E-1,4.006147E-1,6.3105685E-1,2.6830032E0,-5.7158077E-1,1.5857563E0,2.510641E-1,1.03801E0,3.9942572E-1,1.1505926E0,2.1892557E0,3.2502532E0,-6.276155E-1,-3.077697E-1,1.4720294E0,2.540745E0,1.1932831E-1,4.1764247E-1,9.550771E-1,2.5209098E0,8.893159E-2,5.167627E-1,1.5678678E0,9.525921E-1,1.8419234E0,2.3816183E0,3.06955E0,4.2367015E0,-6.53536E-1,-3.7970114E-1,-3.2764334E-2,-3.9713132E-1,1.3366543E0,1.6770389E0,2.3087702E0,3.1493177E0,-8.040329E-2,1.9393125E-1,3.9681888E-1,8.5872775E-1,8.659628E-1,1.5527542E0,2.3782017E0,3.5703435E0,-1.2433291E-1,4.0407217E-1,8.8015354E-1,4.2933843E-1,1.3691647E0,2.1444914E0,7.5034493E-1,1.3199933E0,1.5944028E0,2.0492234E0,2.2028036E0,2.602761E0,2.569121E0,3.2255292E0,4.504594E0,3.4461439E0,-6.995534E-2,-6.0789563E-2,-4.498881E-2,-1.6918734E-2,-1.9367585E-2,3.015706E-2,-4.419124E-2,-1.0294168E-2,7.887734E-2,1.377489E-1,1.0149509E-1,1.7174758E-1,1.463057E-1,2.3773408E-1,3.252211E-1,1.5893775E-1,-1.4102642E-2,-5.235747E-4,1.5830116E-2,2.412667E-2,3.4224786E-2,5.432532E-2,7.723599E-2,1.0316181E-1,7.533283E-2,1.100678E-1,2.7993938E-1,1.3504586E-1,2.186455E-1,2.6489353E-1,3.0176505E-1,3.7885964E-1,2.0078579E-2,-2.7739426E-2,3.2819893E-2,6.4178385E-2,7.824025E-2,1.3049458E-1,2.9978871E-2,5.635315E-2,1.2018341E-1,1.629827E-1,2.8695074E-1,2.0015109E-1,3.554943E-2,9.491929E-2,1.1841052E-1,1.6275162E-1,1.0027546E-1,1.6615848E-1,1.2726776E-1,2.1334116E-1,1.6014723E-1,2.2593239E-1,2.0048817E-1,2.6746795E-1,1.8803848E-1,2.702559E-1,2.532169E-1,3.3209056E-1,3.496425E-1,4.6264133E-1,2.3841818E-1,3.6950868E-1],"categories":[],"categories_nodes":[],"categories_segments":[],"categories_sizes":[],"default_left":[0,0,0,0,0,0,0,0,0,0,0,0,0,0,0,0,0,0,0,0,0,0,0,0,0,0,0,0,0,0,0,0,0,0,0,0,0,0,0,0,0,0,0,0,0,0,0,0,0,0,0,0,0,0,0,0,0,0,0,0,0,0,0,0,0,0,0,0,0,0,0,0,0,0,0,0,0,0,0,0,0,0,0,0,0,0,0,0,0,0,0,0,0,0,0,0,0,0,0,0,0,0,0,0,0,0,0,0,0,0,0,0,0,0,0,0,0,0,0,0,0,0,0,0,0,0,0],"id":2,"left_children":[1,3,5,7,9,11,13,15,17,19,21,23,25,27,29,31,33,35,37,39,41,43,45,47,49,51,53,55,57,59,61,63,65,67,69,71,73,75,77,79,81,83,85,87,89,91,93,95,97,99,101,103,105,107,109,111,113,115,117,119,121,123,125,-1,-1,-1,-1,-1,-1,-1,-1,-1,-1,-1,-1,-1,-1,-1,-1,-1,-1,-1,-1,-1,-1,-1,-1,-1,-1,-1,-1,-1,-1,-1,-1,-1,-1,-1,-1,-1,-1,-1,-1,-1,-1,-1,-1,-1,-1,-1,-1,-1,-1,-1,-1,-1,-1,-1,-1,-1,-1,-1,-1,-1,-1,-1,-1],"loss_changes":[4.4160856E5,8.830386E4,1.2744884E5,2.0966797E4,1.0527389E4,5.327697E4,9.092906E3,1.08145E4,4.8858008E2,1.96298E3,2.5787207E3,1.115575E4,1.1277719E4,1.1564375E3,2.6818438E3,3.8773125E3,3.149754E3,1.1024219E2,6.06333E1,7.4434357E2,3.6249414E2,1.0573887E3,1.57896E2,5.6442705E3,7.0595234E3,5.030547E3,6.878836E3,3.1470703E2,4.3628516E2,9.893594E2,4.796289E2,1.1469375E3,8.438906E2,1.6912092E3,1.2743662E3,5.363672E1,4.130713E1,1.6934692E1,1.56970215E1,6.1904655E1,6.1300537E1,3.0126855E2,2.5782349E1,4.5655664E2,6.4636475E2,4.5134277E1,4.369385E0,2.4925403E3,6.1111865E2,1.7884141E3,3.1139844E3,1.4232266E3,1.1611953E3,4.6884375E3,1.371707E3,1.1078125E2,2.1753613E2,2.0666211E2,2.0928906E2,2.7449023E2,6.357031E2,1.9789453E2,1.4875342E2,0E0,0E0,0E0,0E0,0E0,0E0,0E0,0E0,0E0,0E0,0E0,0E0,0E0,0E0,0E0,0E0,0E0,0E0,0E0,0E0,0E0,0E0,0E0,0E0,0E0,0E0,0E0,0E0,0E0,0E0,0E0,0E0,0E0,0E0,0E0,0E0,0E0,0E0,0E0,0E0,0E0,0E0,0E0,0E0,0E0,0E0,0E0,0E0,0E0,0E0,0E0,0E0,0E0,0E0,0E0,0E0,0E0,0E0,0E0,0E0,0E0,0E0,0E0,0E0],"parents":[2147483647,0,0,1,1,2,2,3,3,4,4,5,5,6,6,7,7,8,8,9,9,10,10,11,11,12,12,13,13,14,14,15,15,16,16,17,17,18,18,19,19,20,20,21,21,22,22,23,23,24,24,25,25,26,26,27,27,28,28,29,29,30,30,31,31,32,32,33,33,34,34,35,35,36,36,37,37,38,38,39,39,40,40,41,41,42,42,43,43,44,44,45,45,46,46,47,47,48,48,49,49,50,50,51,51,52,52,53,53,54,54,55,55,56,56,57,57,58,58,59,59,60,60,61,61,62,62],"right_children":[2,4,6,8,10,12,14,16,18,20,22,24,26,28,30,32,34,36,38,40,42,44,46,48,50,52,54,56,58,60,62,64,66,68,70,72,74,76,78,80,82,84,86,88,90,92,94,96,98,100,102,104,106,108,110,112,114,116,118,120,122,124,126,-1,-1,-1,-1,-1,-1,-1,-1,-1,-1,-1,-1,-1,-1,-1,-1,-1,-1,-1,-1,-1,-1,-1,-1,-1,-1,-1,-1,-1,-1,-1,-1,-1,-1,-1,-1,-1,-1,-1,-1,-1,-1,-1,-1,-1,-1,-1,-1,-1,-1,-1,-1,-1,-1,-1,-1,-1,-1,-1,-1,-1,-1,-1,-1],"split_conditions":[1.3486333E0,9E0,1.7E1,2E1,2.734E0,2.2856333E0,4.898E0,1.602E0,3.95E0,1.534E0,2.3E1,7.1923776E0,2.3776E2,7.1923776E0,7.242E0,3.5E-1,2.3923E2,2.9E0,4.898E0,1.3820327E1,2.5E1,5.33E0,4.898E0,8.66E-1,1.088E0,6.012E0,1.842E0,3.742E0,4.136E0,8.564428E0,2.3648E2,3.1223333E-1,5.6E-1,1.1153563E0,5.02E-1,3.2E1,3E1,2.4E-1,2.4056E2,1E0,2.402E2,2.156E0,2.156E0,1.2023343E0,7.772667E-1,3.87E0,5.33E0,2.3976E2,1.364E0,1.1996641E0,1.6350666E0,2.9269E0,2.3337E2,1.1849201E1,3.3623667E0,3.3E1,3.1E1,3E1,3.2E1,3.5E1,3.2E1,1.14E-1,1.3820327E1,-6.995534E-2,-6.0789563E-2,-4.498881E-2,-1.6918734E-2,-1.9367585E-2,3.015706E-2,-4.419124E-2,-1.0294168E-2,7.887734E-2,1.377489E-1,1.0149509E-1,1.7174758E-1,1.463057E-1,2.3773408E-1,3.252211E-1,1.5893775E-1,-1.4102642E-2,-5.235747E-4,1.5830116E-2,2.412667E-2,3.4224786E-2,5.432532E-2,7.723599E-2,1.0316181E-1,7.533283E-2,1.100678E-1,2.7993938E-1,1.3504586E-1,2.186455E-1,2.6489353E-1,3.0176505E-1,3.7885964E-1,2.0078579E-2,-2.7739426E-2,3.2819893E-2,6.4178385E-2,7.824025E-2,1.3049458E-1,2.9978871E-2,5.635315E-2,1.2018341E-1,1.629827E-1,2.8695074E-1,2.0015109E-1,3.554943E-2,9.491929E-2,1.1841052E-1,1.6275162E-1,1.0027546E-1,1.6615848E-1,1.2726776E-1,2.1334116E-1,1.6014723E-1,2.2593239E-1,2.0048817E-1,2.6746795E-1,1.8803848E-1,2.702559E-1,2.532169E-1,3.3209056E-1,3.496425E-1,4.6264133E-1,2.3841818E-1,3.6950868E-1],"split_indices":[11,5,3,3,16,11,16,16,16,16,3,5,1,5,16,15,1,16,16,5,5,16,16,15,15,16,15,16,16,5,1,11,15,13,15,3,3,10,1,16,1,16,16,13,11,16,16,1,15,14,11,11,1,5,11,3,3,3,3,3,3,21,5,0,0,0,0,0,0,0,0,0,0,0,0,0,0,0,0,0,0,0,0,0,0,0,0,0,0,0,0,0,0,0,0,0,0,0,0,0,0,0,0,0,0,0,0,0,0,0,0,0,0,0,0,0,0,0,0,0,0,0,0,0,0,0,0],"split_type":[0,0,0,0,0,0,0,0,0,0,0,0,0,0,0,0,0,0,0,0,0,0,0,0,0,0,0,0,0,0,0,0,0,0,0,0,0,0,0,0,0,0,0,0,0,0,0,0,0,0,0,0,0,0,0,0,0,0,0,0,0,0,0,0,0,0,0,0,0,0,0,0,0,0,0,0,0,0,0,0,0,0,0,0,0,0,0,0,0,0,0,0,0,0,0,0,0,0,0,0,0,0,0,0,0,0,0,0,0,0,0,0,0,0,0,0,0,0,0,0,0,0,0,0,0,0,0],"sum_hessian":[1.321765E6,8.46554E5,4.75211E5,7.36113E5,1.10441E5,4.42721E5,3.249E4,7.31581E5,4.532E3,8.9454E4,2.0987E4,3.06204E5,1.36517E5,1.7373E4,1.5117E4,6.03412E5,1.28169E5,4.052E3,4.8E2,4.9952E4,3.9502E4,1.9877E4,1.11E3,8.398E4,2.22224E5,4.393E4,9.2587E4,6.196E3,1.1177E4,1.278E4,2.337E3,5.46293E5,5.7119E4,3.1434E4,9.6735E4,2.445E3,1.607E3,3.51E2,1.29E2,1.3584E4,3.6368E4,3.7723E4,1.779E3,1.73E4,2.577E3,9.8E2,1.3E2,5.0086E4,3.3894E4,4.3093E4,1.79131E5,3.2674E4,1.1256E4,5.9717E4,3.287E4,2.828E3,3.368E3,6.186E3,4.991E3,3.041E3,9.739E3,1.742E3,5.95E2,2.72016E5,2.74277E5,4.2836E4,1.4283E4,2.1221E4,1.0213E4,8.3955E4,1.278E4,1.71E2,2.274E3,9.4E1,1.513E3,2.8E1,3.23E2,1.2E2,9E0,7.519E3,6.065E3,2.0752E4,1.5616E4,2.7484E4,1.0239E4,1.19E3,5.89E2,1.1693E4,5.607E3,3.58E2,2.219E3,5.79E2,4.01E2,4.1E1,8.9E1,1.6032E4,3.4054E4,2.5695E4,8.199E3,3.5034E4,8.059E3,9.1144E4,8.7987E4,1.9903E4,1.2771E4,1.851E3,9.405E3,2.0002E4,3.9715E4,2.28E4,1.007E4,2.9E2,2.538E3,3.31E2,3.037E3,5.34E2,5.652E3,5.39E2,4.452E3,4.96E2,2.545E3,1.181E3,8.558E3,1.91E2,1.551E3,1.15E2,4.8E2],"tree_param":{"num_deleted":"0","num_feature":"23","num_nodes":"127","size_leaf_vector":"1"}},{"base_weights":[-1.4277564E-4,-3.7686008E-1,7.1840286E-1,-4.9864265E-1,3.5098064E-1,6.2105906E-1,2.3108819E0,-5.086266E-1,1.449826E0,2.287757E-1,9.541025E-1,4.297635E-1,1.1267189E0,2.1548703E0,3.9546525E0,-5.627064E-1,-2.6265517E-1,1.2113711E0,2.4306881E0,1.3027197E-1,3.8252443E-1,9.000551E-1,2.2986298E0,1.5606444E-1,5.345916E-1,1.4668664E0,8.5647845E-1,1.5597384E0,2.4687278E0,3.5659635E0,4.598582E0,-5.86764E-1,-3.1665528E-1,-4.0469304E-2,-3.6060888E-1,8.016504E-1,1.3716396E0,2.0419066E0,3.0442102E0,-6.462679E-2,1.815653E-1,4.3198583E-1,1.636376E-1,1.2018574E0,7.7501255E-1,2.0746744E0,3.542751E0,-6.009143E-2,4.8436797E-1,3.4995052E-1,7.0474684E-1,1.2757035E0,1.8424271E0,5.8732605E-1,1.134883E0,1.1811941E0,1.8677318E0,2.9111168E0,2.27052E0,3.192788E0,3.808111E0,4.290065E0,4.980593E0,-6.4240254E-2,-5.5203725E-2,-3.7129354E-2,1.21028E-3,-8.9402115E-3,6.596488E-2,-4.1666344E-2,-1.3731042E-2,6.040759E-2,9.164559E-2,1.2256365E-1,1.5639243E-1,2.2567876E-1,1.3537022E-1,2.8963146E-1,3.3324692E-1,-1.3020962E-2,-4.829138E-4,2.1553725E-2,1.4165743E-2,4.1304164E-2,7.960356E-2,1.3371559E-2,6.41948E-2,1.11616604E-1,2.205534E-1,5.978747E-2,1.01896144E-1,1.9282459E-1,2.3616429E-1,2.832069E-1,3.7339094E-1,2.0816173E-2,-2.2008331E-2,4.0074866E-2,7.395887E-2,2.7252644E-2,4.9374502E-2,9.6735924E-2,5.8853623E-2,8.886885E-2,1.3682401E-1,2.2919929E-1,1.6365154E-1,2.4349714E-2,7.869928E-2,1.0530587E-1,1.5710185E-1,1.054764E-1,1.6055019E-1,1.6311437E-1,2.2653596E-1,2.3454078E-1,3.3256978E-1,1.9956823E-1,2.4280964E-1,2.9904673E-1,3.418624E-1,3.461168E-1,3.8841105E-1,3.6783066E-1,4.3791372E-1,5.478369E-1,4.7117835E-1],"categories":[],"categories_nodes":[],"categories_segments":[],"categories_sizes":[],"default_left":[0,0,0,0,0,0,0,0,0,0,0,0,0,0,0,0,0,0,0,0,0,0,0,0,0,0,0,0,0,0,0,0,0,0,0,0,0,0,0,0,0,0,0,0,0,0,0,0,0,0,0,0,0,0,0,0,0,0,0,0,0,0,0,0,0,0,0,0,0,0,0,0,0,0,0,0,0,0,0,0,0,0,0,0,0,0,0,0,0,0,0,0,0,0,0,0,0,0,0,0,0,0,0,0,0,0,0,0,0,0,0,0,0,0,0,0,0,0,0,0,0,0,0,0,0,0,0],"id":3,"left_children":[1,3,5,7,9,11,13,15,17,19,21,23,25,27,29,31,33,35,37,39,41,43,45,47,49,51,53,55,57,59,61,63,65,67,69,71,73,75,77,79,81,83,85,87,89,91,93,95,97,99,101,103,105,107,109,111,113,115,117,119,121,123,125,-1,-1,-1,-1,-1,-1,-1,-1,-1,-1,-1,-1,-1,-1,-1,-1,-1,-1,-1,-1,-1,-1,-1,-1,-1,-1,-1,-1,-1,-1,-1,-1,-1,-1,-1,-1,-1,-1,-1,-1,-1,-1,-1,-1,-1,-1,-1,-1,-1,-1,-1,-1,-1,-1,-1,-1,-1,-1,-1,-1,-1,-1,-1,-1],"loss_changes":[3.5795588E5,7.6898516E4,7.050664E4,1.44585E4,9.165155E3,4.1461875E4,6.710672E3,9.835594E3,8.83271E2,1.5659697E3,1.5204043E3,8.922645E3,1.0813219E4,4.4663203E3,5.517578E2,3.5878125E3,2.9004648E3,1.991792E2,1.7029297E2,6.300831E2,4.3708008E2,7.592285E2,2.1805957E2,6.1119365E3,7.0644844E3,3.7370703E3,4.912258E3,9.6151953E2,1.3671484E3,1.161582E2,7.892969E1,1.0664688E3,9.697959E2,1.397062E3,1.157668E3,1.8953491E1,5.959424E1,6.437915E1,2.498291E0,5.1499115E1,6.761438E1,2.2681152E2,1.06452774E2,5.0488965E2,6.149541E2,2.4356201E1,5.9992676E0,2.2289663E3,7.294287E2,1.2005098E3,3.570754E3,1.2350469E3,1.6224375E3,2.288504E3,1.1484141E3,1.9738379E2,4.2490625E2,1.1282734E3,4.6392188E2,1.5592285E1,9.126953E0,9.938477E0,2.4231445E1,0E0,0E0,0E0,0E0,0E0,0E0,0E0,0E0,0E0,0E0,0E0,0E0,0E0,0E0,0E0,0E0,0E0,0E0,0E0,0E0,0E0,0E0,0E0,0E0,0E0,0E0,0E0,0E0,0E0,0E0,0E0,0E0,0E0,0E0,0E0,0E0,0E0,0E0,0E0,0E0,0E0,0E0,0E0,0E0,0E0,0E0,0E0,0E0,0E0,0E0,0E0,0E0,0E0,0E0,0E0,0E0,0E0,0E0,0E0,0E0,0E0,0E0,0E0,0E0],"parents":[2147483647,0,0,1,1,2,2,3,3,4,4,5,5,6,6,7,7,8,8,9,9,10,10,11,11,12,12,13,13,14,14,15,15,16,16,17,17,18,18,19,19,20,20,21,21,22,22,23,23,24,24,25,25,26,26,27,27,28,28,29,29,30,30,31,31,32,32,33,33,34,34,35,35,36,36,37,37,38,38,39,39,40,40,41,41,42,42,43,43,44,44,45,45,46,46,47,47,48,48,49,49,50,50,51,51,52,52,53,53,54,54,55,55,56,56,57,57,58,58,59,59,60,60,61,61,62,62],"right_children":[2,4,6,8,10,12,14,16,18,20,22,24,26,28,30,32,34,36,38,40,42,44,46,48,50,52,54,56,58,60,62,64,66,68,70,72,74,76,78,80,82,84,86,88,90,92,94,96,98,100,102,104,106,108,110,112,114,116,118,120,122,124,126,-1,-1,-1,-1,-1,-1,-1,-1,-1,-1,-1,-1,-1,-1,-1,-1,-1,-1,-1,-1,-1,-1,-1,-1,-1,-1,-1,-1,-1,-1,-1,-1,-1,-1,-1,-1,-1,-1,-1,-1,-1,-1,-1,-1,-1,-1,-1,-1,-1,-1,-1,-1,-1,-1,-1,-1,-1,-1,-1,-1,-1,-1,-1,-1],"split_conditions":[1.3794667E0,9.791374E0,2.4E1,1.9E1,2.842E0,2.4007666E0,5.6E1,1.602E0,4.06E0,1.588E0,2.7E1,7.1923776E0,2.3851E2,1.3820327E1,6.862E0,3.62E-1,2.3979E2,3.3E1,6E1,1.3820327E1,1.088E0,2.3764E2,5.428E0,9.46E-1,2.842E0,3.2694333E0,1.672E0,3.4E1,2.3554E2,5.788E0,7.884E0,2.04E-1,7.26E-1,3.58E-1,4.34E-1,2.6E1,2.9E0,2.3911E2,5.042E0,9.76E-1,5.28E-1,2.4E1,2.4E1,5.686E0,1.2023343E0,3.984E0,5.686E0,2.4014E2,1.464E0,1.5937E0,1.088E0,6E0,2.3516E2,8.564428E0,2.514E0,3.1129E0,5.254E0,5.788E0,3.4E1,1.1849201E1,6.9E1,6.4E1,2.3264E2,-6.4240254E-2,-5.5203725E-2,-3.7129354E-2,1.21028E-3,-8.9402115E-3,6.596488E-2,-4.1666344E-2,-1.3731042E-2,6.040759E-2,9.164559E-2,1.2256365E-1,1.5639243E-1,2.2567876E-1,1.3537022E-1,2.8963146E-1,3.3324692E-1,-1.3020962E-2,-4.829138E-4,2.1553725E-2,1.4165743E-2,4.1304164E-2,7.960356E-2,1.3371559E-2,6.41948E-2,1.11616604E-1,2.205534E-1,5.978747E-2,1.01896144E-1,1.9282459E-1,2.3616429E-1,2.832069E-1,3.7339094E-1,2.0816173E-2,-2.2008331E-2,4.0074866E-2,7.395887E-2,2.7252644E-2,4.9374502E-2,9.6735924E-2,5.8853623E-2,8.886885E-2,1.3682401E-1,2.2919929E-1,1.6365154E-1,2.4349714E-2,7.869928E-2,1.0530587E-1,1.5710185E-1,1.054764E-1,1.6055019E-1,1.6311437E-1,2.2653596E-1,2.3454078E-1,3.3256978E-1,1.9956823E-1,2.4280964E-1,2.9904673E-1,3.418624E-1,3.461168E-1,3.8841105E-1,3.6783066E-1,4.3791372E-1,5.478369E-1,4.7117835E-1],"split_indices":[11,5,4,4,16,11,4,16,16,16,4,5,1,5,16,15,1,4,4,5,15,1,16,15,16,11,15,4,1,16,16,15,15,0,15,4,16,1,16,16,15,5,5,16,13,16,16,1,15,11,15,5,1,5,15,11,16,16,4,5,4,4,1,0,0,0,0,0,0,0,0,0,0,0,0,0,0,0,0,0,0,0,0,0,0,0,0,0,0,0,0,0,0,0,0,0,0,0,0,0,0,0,0,0,0,0,0,0,0,0,0,0,0,0,0,0,0,0,0,0,0,0,0,0,0,0,0],"split_type":[0,0,0,0,0,0,0,0,0,0,0,0,0,0,0,0,0,0,0,0,0,0,0,0,0,0,0,0,0,0,0,0,0,0,0,0,0,0,0,0,0,0,0,0,0,0,0,0,0,0,0,0,0,0,0,0,0,0,0,0,0,0,0,0,0,0,0,0,0,0,0,0,0,0,0,0,0,0,0,0,0,0,0,0,0,0,0,0,0,0,0,0,0,0,0,0,0,0,0,0,0,0,0,0,0,0,0,0,0,0,0,0,0,0,0,0,0,0,0,0,0,0,0,0,0,0,0],"sum_hessian":[1.322388E6,8.67551E5,4.54837E5,7.43199E5,1.24352E5,4.28637E5,2.62E4,7.39411E5,3.788E3,1.03402E5,2.095E4,3.10989E5,1.17648E5,2.3931E4,2.269E3,6.06142E5,1.33269E5,3.049E3,7.39E2,6.3025E4,4.0377E4,2.0142E4,8.08E2,8.6125E4,2.24864E5,5.2085E4,6.5563E4,8.265E3,1.5666E4,1.419E3,8.5E2,5.52154E5,5.3988E4,4.0777E4,9.2492E4,8.59E2,2.19E3,4.55E2,2.84E2,1.3131E4,4.9894E4,3.2934E4,7.443E3,5.898E3,1.4244E4,6.87E2,1.21E2,5.1933E4,3.4192E4,1.07843E5,1.17021E5,3.4519E4,1.7566E4,3.3337E4,3.2226E4,3.71E3,4.555E3,4.843E3,1.0823E4,5.64E2,8.55E2,4.77E2,3.73E2,2.12182E5,3.39972E5,4.6294E4,7.694E3,3.8114E4,2.663E3,7.3932E4,1.856E4,3.18E2,5.41E2,1.249E3,9.41E2,3.45E2,1.1E2,1.95E2,8.9E1,6.262E3,6.869E3,2.6949E4,2.2945E4,3.1307E4,1.627E3,7.006E3,4.37E2,5.436E3,4.62E2,8.254E3,5.99E3,4.6E2,2.27E2,2.9E1,9.2E1,1.9402E4,3.2531E4,2.5756E4,8.436E3,7.0101E4,3.7742E4,3.5896E4,8.1125E4,6.663E3,2.7856E4,5.515E3,1.2051E4,1.2248E4,2.1089E4,2.7138E4,5.088E3,2.861E3,8.49E2,2.859E3,1.696E3,2.051E3,2.792E3,3.949E3,6.874E3,3.05E2,2.59E2,1.62E2,6.93E2,6.6E1,4.11E2,1.24E2,2.49E2],"tree_param":{"num_deleted":"0","num_feature":"23","num_nodes":"127","size_leaf_vector":"1"}},{"base_weights":[-1.231143E-4,-2.7311754E-1,1.4272289E0,-5.24339E-1,1.9080736E-1,1.0455749E0,2.4574518E0,-5.6889695E-1,-3.81097E-1,9.397009E-2,3.7355703E-1,8.193127E-1,1.3746535E0,2.1276648E0,3.3859885E0,-6.2463593E-1,-5.311343E-1,-4.2994133E-1,-2.7474082E-1,-6.781215E-2,1.3975452E-1,3.096728E-1,4.816665E-1,6.969066E-1,9.555861E-1,1.2304107E0,1.5706792E0,1.9444238E0,2.4470472E0,3.1410072E0,4.27292E0,-6.169542E-1,-7.253024E-1,-5.1747906E-1,-6.161974E-1,-4.033624E-1,-4.857712E-1,-2.2397283E-1,-3.2992467E-1,-1.3136883E-1,-1.9002648E-2,1.7005144E-1,7.198611E-2,3.5744944E-1,2.5821006E-1,5.173745E-1,3.5472474E-1,7.4324405E-1,5.852912E-1,1.0382255E0,8.59537E-1,1.3187634E0,1.1380153E0,1.6809889E0,1.4885687E0,1.8585268E0,2.0705218E0,2.3191078E0,2.593717E0,2.9355729E0,3.38669E0,4.0666137E0,5.081908E0,-6.700468E-2,-6.0130633E-2,-7.5451374E-2,-6.966683E-2,-5.379194E-2,-4.8489053E-2,-6.4991176E-2,-5.8459975E-2,-4.2816114E-2,-3.506206E-2,-4.7301818E-2,-5.7468098E-2,-2.7181938E-2,-1.785503E-2,-3.742383E-2,-2.9104108E-2,-9.394044E-3,-2.2846175E-2,2.3284822E-3,-1.05183115E-2,1.249396E-2,2.2143213E-2,1.6345304E-3,1.1525645E-2,3.131559E-2,4.039642E-2,2.0798894E-2,2.9825637E-2,4.661043E-2,5.6183685E-2,3.0280465E-2,3.9266866E-2,6.902553E-2,8.3167315E-2,5.1325865E-2,6.6143684E-2,9.6719705E-2,1.10005595E-1,8.139503E-2,9.3609564E-2,1.24150194E-1,1.4067934E-1,1.0536548E-1,1.21439554E-1,1.5812585E-1,1.7566355E-1,1.4017546E-1,1.5790701E-1,1.9409132E-1,1.771348E-1,2.1685055E-1,1.9928342E-1,2.4502333E-1,2.2438376E-1,2.7272952E-1,2.5250497E-1,2.860293E-1,3.0726123E-1,3.284443E-1,3.546494E-1,3.8400292E-1,4.270199E-1,4.689512E-1,5.1927227E-1],"categories":[],"categories_nodes":[],"categories_segments":[],"categories_sizes":[],"default_left":[0,0,0,0,0,0,0,0,0,0,0,0,0,0,0,0,0,0,0,0,0,0,0,0,0,0,0,0,0,0,0,0,0,0,0,0,0,0,0,0,0,0,0,0,0,0,0,0,0,0,0,0,0,0,0,0,0,0,0,0,0,0,0,0,0,0,0,0,0,0,0,0,0,0,0,0,0,0,0,0,0,0,0,0,0,0,0,0,0,0,0,0,0,0,0,0,0,0,0,0,0,0,0,0,0,0,0,0,0,0,0,0,0,0,0,0,0,0,0,0,0,0,0,0,0,0,0],"id":4,"left_children":[1,3,5,7,9,11,13,15,17,19,21,23,25,27,29,31,33,35,37,39,41,43,45,47,49,51,53,55,57,59,61,63,65,67,69,71,73,75,77,79,81,83,85,87,89,91,93,95,97,99,101,103,105,107,109,111,113,115,117,119,121,123,125,-1,-1,-1,-1,-1,-1,-1,-1,-1,-1,-1,-1,-1,-1,-1,-1,-1,-1,-1,-1,-1,-1,-1,-1,-1,-1,-1,-1,-1,-1,-1,-1,-1,-1,-1,-1,-1,-1,-1,-1,-1,-1,-1,-1,-1,-1,-1,-1,-1,-1,-1,-1,-1,-1,-1,-1,-1,-1,-1,-1,-1,-1,-1,-1],"loss_changes":[5.1539862E5,1.2940674E5,8.349541E4,4.5970312E3,6.902583E3,1.1536734E4,1.7571E4,1.1560469E3,8.8768945E2,1.8884587E3,9.328828E2,1.5310547E3,1.7831641E3,2.4744219E3,3.2551562E3,1.7113281E2,3.8010938E2,1.7358789E2,1.5061694E2,1.7445425E2,4.0798438E2,2.0869922E2,2.2726074E2,2.4977539E2,3.4398438E2,2.954414E2,2.39875E2,2.8777344E2,2.8371875E2,5.8516406E2,5.222578E2,1.7086719E2,1.262793E1,1.8773438E2,4.7875E1,1.0362988E2,4.2549805E1,6.084326E1,4.4296387E1,8.87507E1,1.1592934E2,3.1826807E2,1.4781012E2,9.059668E1,8.2166504E1,8.900488E1,2.1589111E1,1.5959375E2,7.753027E1,1.0148242E2,6.9387695E1,1.2467578E2,1.1333789E2,8.330859E1,1.1837891E2,1.1165234E2,7.864844E1,7.599219E1,5.9015625E1,5.7535156E1,7.5984375E1,1.0340234E2,4.216797E0,0E0,0E0,0E0,0E0,0E0,0E0,0E0,0E0,0E0,0E0,0E0,0E0,0E0,0E0,0E0,0E0,0E0,0E0,0E0,0E0,0E0,0E0,0E0,0E0,0E0,0E0,0E0,0E0,0E0,0E0,0E0,0E0,0E0,0E0,0E0,0E0,0E0,0E0,0E0,0E0,0E0,0E0,0E0,0E0,0E0,0E0,0E0,0E0,0E0,0E0,0E0,0E0,0E0,0E0,0E0,0E0,0E0,0E0,0E0,0E0,0E0,0E0,0E0,0E0],"parents":[2147483647,0,0,1,1,2,2,3,3,4,4,5,5,6,6,7,7,8,8,9,9,10,10,11,11,12,12,13,13,14,14,15,15,16,16,17,17,18,18,19,19,20,20,21,21,22,22,23,23,24,24,25,25,26,26,27,27,28,28,29,29,30,30,31,31,32,32,33,33,34,34,35,35,36,36,37,37,38,38,39,39,40,40,41,41,42,42,43,43,44,44,45,45,46,46,47,47,48,48,49,49,50,50,51,51,52,52,53,53,54,54,55,55,56,56,57,57,58,58,59,59,60,60,61,61,62,62],"right_children":[2,4,6,8,10,12,14,16,18,20,22,24,26,28,30,32,34,36,38,40,42,44,46,48,50,52,54,56,58,60,62,64,66,68,70,72,74,76,78,80,82,84,86,88,90,92,94,96,98,100,102,104,106,108,110,112,114,116,118,120,122,124,126,-1,-1,-1,-1,-1,-1,-1,-1,-1,-1,-1,-1,-1,-1,-1,-1,-1,-1,-1,-1,-1,-1,-1,-1,-1,-1,-1,-1,-1,-1,-1,-1,-1,-1,-1,-1,-1,-1,-1,-1,-1,-1,-1,-1,-1,-1,-1,-1,-1,-1,-1,-1,-1,-1,-1,-1,-1,-1,-1,-1,-1,-1,-1,-1],"split_conditions":[8.4E0,3.8E0,1.5E1,2E0,6.4E0,1.12E1,2.06E1,1.1479055E0,2.8E0,5.087356E0,7.280831E0,9.8E0,1.3E1,1.74E1,2.64E1,1.616E0,1.666E0,1.602E0,1.63E0,4.4E0,2.768E0,2.842E0,2.3428333E0,2.4007666E0,2.3428333E0,2.4007666E0,2.3428333E0,1.62E1,1.88E1,2.3E1,3.26E1,8E-1,2.06E-1,1.528464E0,1.528464E0,2.4E0,1.7091666E0,3.2E0,3.2E0,1.3087E0,1.3794667E0,5.8E0,5.8E0,6.761981E0,6.761981E0,7.8E0,7.8E0,9.2E0,9.2E0,1.04E1,1.06E1,1.2E1,1.2E1,1.38E1,1.4E1,2.4007666E0,2.4007666E0,2.3711E0,2.3711E0,2.2E1,2.48E1,2.8E1,7.884E0,-6.700468E-2,-6.0130633E-2,-7.5451374E-2,-6.966683E-2,-5.379194E-2,-4.8489053E-2,-6.4991176E-2,-5.8459975E-2,-4.2816114E-2,-3.506206E-2,-4.7301818E-2,-5.7468098E-2,-2.7181938E-2,-1.785503E-2,-3.742383E-2,-2.9104108E-2,-9.394044E-3,-2.2846175E-2,2.3284822E-3,-1.05183115E-2,1.249396E-2,2.2143213E-2,1.6345304E-3,1.1525645E-2,3.131559E-2,4.039642E-2,2.0798894E-2,2.9825637E-2,4.661043E-2,5.6183685E-2,3.0280465E-2,3.9266866E-2,6.902553E-2,8.3167315E-2,5.1325865E-2,6.6143684E-2,9.6719705E-2,1.10005595E-1,8.139503E-2,9.3609564E-2,1.24150194E-1,1.4067934E-1,1.0536548E-1,1.21439554E-1,1.5812585E-1,1.7566355E-1,1.4017546E-1,1.5790701E-1,1.9409132E-1,1.771348E-1,2.1685055E-1,1.9928342E-1,2.4502333E-1,2.2438376E-1,2.7272952E-1,2.5250497E-1,2.860293E-1,3.0726123E-1,3.284443E-1,3.546494E-1,3.8400292E-1,4.270199E-1,4.689512E-1,5.1927227E-1],"split_indices":[2,2,2,2,2,2,2,2,2,2,2,2,2,2,2,16,16,16,16,2,16,16,11,11,11,11,11,2,2,2,2,2,15,2,2,2,11,2,2,11,11,2,2,2,2,2,2,2,2,2,2,2,2,2,2,11,11,11,11,2,2,2,16,0,0,0,0,0,0,0,0,0,0,0,0,0,0,0,0,0,0,0,0,0,0,0,0,0,0,0,0,0,0,0,0,0,0,0,0,0,0,0,0,0,0,0,0,0,0,0,0,0,0,0,0,0,0,0,0,0,0,0,0,0,0,0,0],"split_type":[0,0,0,0,0,0,0,0,0,0,0,0,0,0,0,0,0,0,0,0,0,0,0,0,0,0,0,0,0,0,0,0,0,0,0,0,0,0,0,0,0,0,0,0,0,0,0,0,0,0,0,0,0,0,0,0,0,0,0,0,0,0,0,0,0,0,0,0,0,0,0,0,0,0,0,0,0,0,0,0,0,0,0,0,0,0,0,0,0,0,0,0,0,0,0,0,0,0,0,0,0,0,0,0,0,0,0,0,0,0,0,0,0,0,0,0,0,0,0,0,0,0,0,0,0,0,0],"sum_hessian":[1.322689E6,1.110329E6,2.1236E5,7.20285E5,3.90044E5,1.54957E5,5.7403E4,5.49386E5,1.70899E5,2.5495E5,1.35094E5,9.1825E4,6.3132E4,4.2361E4,1.5042E4,2.21875E5,3.27511E5,1.17112E5,5.3787E4,5.6236E4,1.98714E5,8.4918E4,5.0176E4,4.8377E4,4.3448E4,3.6374E4,2.6758E4,2.6922E4,1.5439E4,1.179E4,3.252E3,2.06151E5,1.5724E4,2.82214E5,4.5297E4,7.9346E4,3.7766E4,2.8017E4,2.577E4,2.4427E4,3.1809E4,1.37321E5,6.1393E4,4.4033E4,4.0885E4,3.9158E4,1.1018E4,3.4181E4,1.4196E4,2.3349E4,2.0099E4,1.8587E4,1.7787E4,1.141E4,1.5348E4,1.6023E4,1.0899E4,8.255E3,7.184E3,6.428E3,5.362E3,2.596E3,6.56E2,4.6918E4,1.59233E5,7.771E3,7.953E3,1.73423E5,1.08791E5,2.1905E4,2.3392E4,5.3965E4,2.5381E4,3.3034E4,4.732E3,1.3642E4,1.4375E4,1.204E4,1.373E4,1.7632E4,6.795E3,2.1339E4,1.047E4,7.3123E4,6.4198E4,2.6858E4,3.4535E4,2.2559E4,2.1474E4,1.8141E4,2.2744E4,1.8192E4,2.0966E4,4.656E3,6.362E3,2.1379E4,1.2802E4,7.299E3,6.897E3,1.0874E4,1.2475E4,1.2605E4,7.494E3,9.907E3,8.68E3,8.459E3,9.328E3,4.931E3,6.479E3,7.842E3,7.506E3,8.227E3,7.796E3,4.808E3,6.091E3,2.999E3,5.256E3,2.426E3,4.758E3,4.163E3,2.265E3,3.283E3,2.079E3,1.238E3,1.358E3,1.54E2,5.02E2],"tree_param":{"num_deleted":"0","num_feature":"23","num_nodes":"127","size_leaf_vector":"1"}},{"base_weights":[3.2457676E-5,-2.4570452E-1,1.2835329E0,-4.7187293E-1,1.7169885E-1,9.402417E-1,2.209777E0,-5.120235E-1,-3.4276015E-1,8.453773E-2,3.3608672E-1,7.4989295E-1,1.2583586E0,1.8958266E0,2.9954956E0,-5.622319E-1,-4.7814995E-1,-3.8671705E-1,-2.4696828E-1,-6.1112415E-2,1.2579055E-1,2.6521128E-1,4.1570404E-1,6.2653613E-1,8.730156E-1,1.138143E0,1.4328941E0,1.7384773E0,2.1553843E0,2.7885792E0,3.8496993E0,-5.5531883E-1,-6.5187E-1,-4.6544725E-1,-5.520121E-1,-3.6328268E-1,-4.371991E-1,-2.0078991E-1,-2.9515073E-1,-1.073162E-1,-5.0311424E-3,1.5326342E-1,6.5519206E-2,3.08145E-1,2.1639435E-1,4.453597E-1,3.0381304E-1,6.719416E-1,5.335831E-1,9.480308E-1,7.862172E-1,1.2263583E0,1.0588275E0,1.529945E0,1.3549815E0,1.6602482E0,1.8311923E0,2.0348272E0,2.272606E0,2.6101124E0,3.0486724E0,3.5444221E0,4.293809E0,-6.0291983E-2,-5.412057E-2,-7.182848E-2,-6.290128E-2,-4.838727E-2,-4.357152E-2,-6.28476E-2,-5.3222954E-2,-3.8545907E-2,-3.162716E-2,-5.1153835E-2,-4.1533947E-2,-2.4341218E-2,-1.6044173E-2,-3.653877E-2,-2.7063256E-2,-7.2406987E-3,-1.9359602E-2,3.3950096E-3,-8.1121465E-3,1.1281721E-2,1.9944713E-2,3.118862E-3,1.2410371E-2,2.8195081E-2,3.4695935E-2,1.3243355E-2,2.3834025E-2,4.0240496E-2,5.0561395E-2,1.5212175E-2,3.4621492E-2,6.092551E-2,7.353505E-2,4.02953E-2,5.786217E-2,8.842857E-2,1.024488E-1,6.8983585E-2,8.274972E-2,1.1711693E-1,1.3265486E-1,9.9844255E-2,1.1492463E-1,1.5624902E-1,1.3771439E-1,1.2768312E-1,1.4362039E-1,1.719563E-1,1.558224E-1,1.9194077E-1,1.7578621E-1,2.1527758E-1,1.9650228E-1,2.392298E-1,2.2123365E-1,2.5231317E-1,2.7245554E-1,2.9800814E-1,3.2340428E-1,3.744938E-1,3.4423205E-1,4.0110064E-1,4.5738965E-1],"categories":[],"categories_nodes":[],"categories_segments":[],"categories_sizes":[],"default_left":[0,0,0,0,0,0,0,0,0,0,0,0,0,0,0,0,0,0,0,0,0,0,0,0,0,0,0,0,0,0,0,0,0,0,0,0,0,0,0,0,0,0,0,0,0,0,0,0,0,0,0,0,0,0,0,0,0,0,0,0,0,0,0,0,0,0,0,0,0,0,0,0,0,0,0,0,0,0,0,0,0,0,0,0,0,0,0,0,0,0,0,0,0,0,0,0,0,0,0,0,0,0,0,0,0,0,0,0,0,0,0,0,0,0,0,0,0,0,0,0,0,0,0,0,0,0,0],"id":5,"left_children":[1,3,5,7,9,11,13,15,17,19,21,23,25,27,29,31,33,35,37,39,41,43,45,47,49,51,53,55,57,59,61,63,65,67,69,71,73,75,77,79,81,83,85,87,89,91,93,95,97,99,101,103,105,107,109,111,113,115,117,119,121,123,125,-1,-1,-1,-1,-1,-1,-1,-1,-1,-1,-1,-1,-1,-1,-1,-1,-1,-1,-1,-1,-1,-1,-1,-1,-1,-1,-1,-1,-1,-1,-1,-1,-1,-1,-1,-1,-1,-1,-1,-1,-1,-1,-1,-1,-1,-1,-1,-1,-1,-1,-1,-1,-1,-1,-1,-1,-1,-1,-1,-1,-1,-1,-1,-1],"loss_changes":[4.167073E5,1.0468247E5,6.750484E4,3.7280781E3,5.5835703E3,9.378625E3,1.41555E4,9.3275E2,7.1825586E2,1.5301628E3,7.61834E2,1.471375E3,1.2150312E3,1.6716094E3,2.8858281E3,1.3658594E2,3.0710156E2,1.3817969E2,1.1934277E2,1.4564899E2,3.2860034E2,1.4965967E2,2.1086914E2,2.0397461E2,3.1504297E2,2.3898047E2,1.7672266E2,1.8222656E2,2.1410156E2,6.045703E2,4.176797E2,1.3751562E2,2.3561035E1,1.5292578E2,7.237305E1,8.314551E1,6.0026367E1,4.709021E1,4.5123047E1,9.2811615E1,7.531783E1,2.5461548E2,1.24972565E2,3.854419E1,6.157007E1,1.2989258E2,8.5660034E1,1.2882324E2,9.327197E1,1.2586719E2,8.890918E1,8.831055E1,9.762305E1,5.017383E1,8.1478516E1,8.122656E1,7.218359E1,5.866992E1,5.1257812E1,7.109375E1,5.85625E1,2.596875E1,8.431055E1,0E0,0E0,0E0,0E0,0E0,0E0,0E0,0E0,0E0,0E0,0E0,0E0,0E0,0E0,0E0,0E0,0E0,0E0,0E0,0E0,0E0,0E0,0E0,0E0,0E0,0E0,0E0,0E0,0E0,0E0,0E0,0E0,0E0,0E0,0E0,0E0,0E0,0E0,0E0,0E0,0E0,0E0,0E0,0E0,0E0,0E0,0E0,0E0,0E0,0E0,0E0,0E0,0E0,0E0,0E0,0E0,0E0,0E0,0E0,0E0,0E0,0E0,0E0,0E0],"parents":[2147483647,0,0,1,1,2,2,3,3,4,4,5,5,6,6,7,7,8,8,9,9,10,10,11,11,12,12,13,13,14,14,15,15,16,16,17,17,18,18,19,19,20,20,21,21,22,22,23,23,24,24,25,25,26,26,27,27,28,28,29,29,30,30,31,31,32,32,33,33,34,34,35,35,36,36,37,37,38,38,39,39,40,40,41,41,42,42,43,43,44,44,45,45,46,46,47,47,48,48,49,49,50,50,51,51,52,52,53,53,54,54,55,55,56,56,57,57,58,58,59,59,60,60,61,61,62,62],"right_children":[2,4,6,8,10,12,14,16,18,20,22,24,26,28,30,32,34,36,38,40,42,44,46,48,50,52,54,56,58,60,62,64,66,68,70,72,74,76,78,80,82,84,86,88,90,92,94,96,98,100,102,104,106,108,110,112,114,116,118,120,122,124,126,-1,-1,-1,-1,-1,-1,-1,-1,-1,-1,-1,-1,-1,-1,-1,-1,-1,-1,-1,-1,-1,-1,-1,-1,-1,-1,-1,-1,-1,-1,-1,-1,-1,-1,-1,-1,-1,-1,-1,-1,-1,-1,-1,-1,-1,-1,-1,-1,-1,-1,-1,-1,-1,-1,-1,-1,-1,-1,-1,-1,-1,-1,-1,-1],"split_conditions":[8.4E0,3.8E0,1.5E1,2E0,6.4E0,1.14E1,2.02E1,1.0418904E0,2.8E0,5.087356E0,7.171246E0,9.8E0,1.32E1,1.72E1,2.64E1,1.602E0,1.602E0,1.616E0,1.602E0,4.6E0,2.734E0,2.842E0,2.3428333E0,2.3428333E0,2.3428333E0,2.3428333E0,2.4007666E0,1.6E1,1.84E1,2.3E1,2.98E1,8E-1,2.3979E2,1.528464E0,2.3976E2,2.4E0,2.3979E2,3.2E0,2.3976E2,1.3087E0,1.3794667E0,5.8E0,6E0,6.761981E0,2.3799E2,7.8E0,2.3799E2,9E0,2.3799E2,1.06E1,2.3799E2,1.24E1,1.24E1,6E0,2.3794E2,4.702E0,2.4007666E0,2.3711E0,2.3428333E0,2.16E1,2.52E1,3E0,3.26E1,-6.0291983E-2,-5.412057E-2,-7.182848E-2,-6.290128E-2,-4.838727E-2,-4.357152E-2,-6.28476E-2,-5.3222954E-2,-3.8545907E-2,-3.162716E-2,-5.1153835E-2,-4.1533947E-2,-2.4341218E-2,-1.6044173E-2,-3.653877E-2,-2.7063256E-2,-7.2406987E-3,-1.9359602E-2,3.3950096E-3,-8.1121465E-3,1.1281721E-2,1.9944713E-2,3.118862E-3,1.2410371E-2,2.8195081E-2,3.4695935E-2,1.3243355E-2,2.3834025E-2,4.0240496E-2,5.0561395E-2,1.5212175E-2,3.4621492E-2,6.092551E-2,7.353505E-2,4.02953E-2,5.786217E-2,8.842857E-2,1.024488E-1,6.8983585E-2,8.274972E-2,1.1711693E-1,1.3265486E-1,9.9844255E-2,1.1492463E-1,1.5624902E-1,1.3771439E-1,1.2768312E-1,1.4362039E-1,1.719563E-1,1.558224E-1,1.9194077E-1,1.7578621E-1,2.1527758E-1,1.9650228E-1,2.392298E-1,2.2123365E-1,2.5231317E-1,2.7245554E-1,2.9800814E-1,3.2340428E-1,3.744938E-1,3.4423205E-1,4.0110064E-1,4.5738965E-1],"split_indices":[2,2,2,2,2,2,2,2,2,2,2,2,2,2,2,16,16,16,16,2,16,16,11,11,11,11,11,2,2,2,2,2,1,2,1,2,1,2,1,11,11,2,2,2,1,2,1,2,1,2,1,2,2,4,1,16,11,11,11,2,2,4,2,0,0,0,0,0,0,0,0,0,0,0,0,0,0,0,0,0,0,0,0,0,0,0,0,0,0,0,0,0,0,0,0,0,0,0,0,0,0,0,0,0,0,0,0,0,0,0,0,0,0,0,0,0,0,0,0,0,0,0,0,0,0,0,0],"split_type":[0,0,0,0,0,0,0,0,0,0,0,0,0,0,0,0,0,0,0,0,0,0,0,0,0,0,0,0,0,0,0,0,0,0,0,0,0,0,0,0,0,0,0,0,0,0,0,0,0,0,0,0,0,0,0,0,0,0,0,0,0,0,0,0,0,0,0,0,0,0,0,0,0,0,0,0,0,0,0,0,0,0,0,0,0,0,0,0,0,0,0,0,0,0,0,0,0,0,0,0,0,0,0,0,0,0,0,0,0,0,0,0,0,0,0,0,0,0,0,0,0,0,0,0,0,0,0],"sum_hessian":[1.321186E6,1.108882E6,2.12304E5,7.19191E5,3.89691E5,1.54897E5,5.7407E4,5.48591E5,1.706E5,2.54665E5,1.35026E5,9.6912E4,5.7985E4,4.102E4,1.6387E4,2.21001E5,3.2759E5,1.16937E5,5.3663E4,5.6209E4,1.98456E5,7.1437E4,6.3589E4,4.8413E4,4.8499E4,3.434E4,2.3645E4,2.5543E4,1.5477E4,1.3195E4,3.192E3,2.05184E5,1.5817E4,2.79525E5,4.8065E4,7.9869E4,3.7068E4,2.7404E4,2.6259E4,3.0818E4,2.5391E4,1.36318E5,6.2138E4,3.8006E4,3.3431E4,5.0264E4,1.3325E4,3.2521E4,1.5892E4,2.601E4,2.2489E4,1.6251E4,1.8089E4,1.0521E4,1.3124E4,1.3864E4,1.1679E4,7.639E3,7.838E3,7.832E3,5.363E3,1.897E3,1.295E3,4.6913E4,1.58271E5,4.042E3,1.1775E4,1.72567E5,1.06958E5,9.873E3,3.8192E4,5.4264E4,2.5605E4,8.418E3,2.865E4,1.3324E4,1.408E4,6.791E3,1.9468E4,2.1942E4,8.876E3,1.679E4,8.601E3,7.2675E4,6.3643E4,3.918E4,2.2958E4,2.2697E4,1.5309E4,6.929E3,2.6502E4,2.9349E4,2.0915E4,2.912E3,1.0413E4,1.6359E4,1.6162E4,4.077E3,1.1815E4,1.4191E4,1.1819E4,6.749E3,1.574E4,1.0487E4,5.764E3,1.0853E4,7.236E3,8.666E3,1.855E3,6.697E3,6.427E3,8.757E3,5.107E3,5.29E3,6.389E3,2.829E3,4.81E3,2.612E3,5.226E3,4.463E3,3.369E3,3.927E3,1.436E3,6.28E2,1.269E3,6.52E2,6.43E2],"tree_param":{"num_deleted":"0","num_feature":"23","num_nodes":"127","size_leaf_vector":"1"}},{"base_weights":[-5.7611465E-5,-2.2644952E-1,1.129821E0,-4.2470658E-1,1.476708E-1,8.159892E-1,1.9640657E0,-4.6934623E-1,-3.2962605E-1,6.3625045E-2,2.7287814E-1,6.3264287E-1,1.0817815E0,1.6719654E0,2.6535215E0,-5.060579E-1,-4.3914273E-1,-3.6923042E-1,-2.3978879E-1,-7.35395E-2,9.743335E-2,2.2330132E-1,3.6051932E-1,5.329815E-1,7.440814E-1,9.7040766E-1,1.2412599E0,1.5245802E0,1.8799952E0,2.4553347E0,3.3791733E0,-5.481984E-1,-4.939322E-1,-4.2778888E-1,-5.1370263E-1,-3.524285E-1,-4.2317623E-1,-2.743851E-1,-1.875005E-1,-4.2136107E-2,-1.4695655E-1,1.19949386E-1,2.9050486E-2,2.6006186E-1,1.7802487E-1,3.8902023E-1,2.6283324E-1,5.708025E-1,4.3716043E-1,8.1346774E-1,6.7004746E-1,1.0404621E0,8.924689E-1,1.3314748E0,1.1753014E0,1.5752805E0,1.4236127E0,1.77094E0,1.9875538E0,2.2895358E0,2.6717465E0,3.1370602E0,3.8544266E0,-5.4267973E-2,-6.491366E-2,-4.8707932E-2,-5.7505894E-2,-4.502501E-2,-4.162634E-2,-4.9962E-2,-5.782324E-2,-3.6808304E-2,-3.1849846E-2,-4.112803E-2,-5.0799187E-2,-2.5435105E-2,-3.6218E-2,-1.614623E-2,-2.66818E-2,-9.20953E-3,-8.5175125E-4,-1.875637E-2,-1.0791824E-2,7.2044185E-3,1.5214898E-2,-2.9936552E-3,5.666875E-3,2.2815434E-2,2.960447E-2,1.3717371E-2,2.1182908E-2,3.4791123E-2,4.268923E-2,2.2005524E-2,2.9354438E-2,5.1735766E-2,6.2462788E-2,3.8379036E-2,5.0009828E-2,7.583424E-2,8.6087584E-2,6.161625E-2,7.179224E-2,9.771623E-2,1.1111199E-1,8.254688E-2,9.5249444E-2,1.2651384E-1,1.4112814E-1,1.0995769E-1,1.2551567E-1,1.5001027E-1,1.6421421E-1,1.3413715E-1,1.4922781E-1,1.847487E-1,1.6831657E-1,2.0562695E-1,1.8998116E-1,2.353893E-1,2.1827309E-1,2.5736818E-1,2.779691E-1,2.987291E-1,3.2625073E-1,3.597546E-1,4.1105038E-1],"categories":[],"categories_nodes":[],"categories_segments":[],"categories_sizes":[],"default_left":[0,0,0,0,0,0,0,0,0,0,0,0,0,0,0,0,0,0,0,0,0,0,0,0,0,0,0,0,0,0,0,0,0,0,0,0,0,0,0,0,0,0,0,0,0,0,0,0,0,0,0,0,0,0,0,0,0,0,0,0,0,0,0,0,0,0,0,0,0,0,0,0,0,0,0,0,0,0,0,0,0,0,0,0,0,0,0,0,0,0,0,0,0,0,0,0,0,0,0,0,0,0,0,0,0,0,0,0,0,0,0,0,0,0,0,0,0,0,0,0,0,0,0,0,0,0,0],"id":6,"left_children":[1,3,5,7,9,11,13,15,17,19,21,23,25,27,29,31,33,35,37,39,41,43,45,47,49,51,53,55,57,59,61,63,65,67,69,71,73,75,77,79,81,83,85,87,89,91,93,95,97,99,101,103,105,107,109,111,113,115,117,119,121,123,125,-1,-1,-1,-1,-1,-1,-1,-1,-1,-1,-1,-1,-1,-1,-1,-1,-1,-1,-1,-1,-1,-1,-1,-1,-1,-1,-1,-1,-1,-1,-1,-1,-1,-1,-1,-1,-1,-1,-1,-1,-1,-1,-1,-1,-1,-1,-1,-1,-1,-1,-1,-1,-1,-1,-1,-1,-1,-1,-1,-1,-1,-1,-1,-1],"loss_changes":[3.3808422E5,8.166916E4,5.775972E4,3.0544766E3,4.0133633E3,7.811789E3,1.2140797E4,5.428281E2,8.180254E2,1.0582623E3,6.654912E2,1.0532891E3,1.1611641E3,1.2960078E3,2.572461E3,1.1267969E2,2.2725E2,1.4449805E2,1.27221436E2,1.0403386E2,2.8188684E2,1.6279736E2,1.5397998E2,1.8126758E2,2.295293E2,2.0948047E2,1.5853516E2,1.2471484E2,2.0249219E2,4.9976562E2,4.305664E2,2.7157227E1,9.516016E1,6.0179688E1,3.1975586E1,6.4518555E1,3.802539E1,7.437744E1,5.7822144E1,5.308669E1,2.1410492E1,2.124414E2,7.3883896E1,6.1926758E1,6.051831E1,6.655029E1,1.636139E1,1.0297656E2,4.7435303E1,5.975586E1,5.5470703E1,8.966016E1,7.2606445E1,5.8333984E1,9.265625E1,8.048047E1,4.4875E1,5.554492E1,4.935547E1,4.978125E1,5.7523438E1,3.823828E1,7.033203E1,0E0,0E0,0E0,0E0,0E0,0E0,0E0,0E0,0E0,0E0,0E0,0E0,0E0,0E0,0E0,0E0,0E0,0E0,0E0,0E0,0E0,0E0,0E0,0E0,0E0,0E0,0E0,0E0,0E0,0E0,0E0,0E0,0E0,0E0,0E0,0E0,0E0,0E0,0E0,0E0,0E0,0E0,0E0,0E0,0E0,0E0,0E0,0E0,0E0,0E0,0E0,0E0,0E0,0E0,0E0,0E0,0E0,0E0,0E0,0E0,0E0,0E0,0E0,0E0],"parents":[2147483647,0,0,1,1,2,2,3,3,4,4,5,5,6,6,7,7,8,8,9,9,10,10,11,11,12,12,13,13,14,14,15,15,16,16,17,17,18,18,19,19,20,20,21,21,22,22,23,23,24,24,25,25,26,26,27,27,28,28,29,29,30,30,31,31,32,32,33,33,34,34,35,35,36,36,37,37,38,38,39,39,40,40,41,41,42,42,43,43,44,44,45,45,46,46,47,47,48,48,49,49,50,50,51,51,52,52,53,53,54,54,55,55,56,56,57,57,58,58,59,59,60,60,61,61,62,62],"right_children":[2,4,6,8,10,12,14,16,18,20,22,24,26,28,30,32,34,36,38,40,42,44,46,48,50,52,54,56,58,60,62,64,66,68,70,72,74,76,78,80,82,84,86,88,90,92,94,96,98,100,102,104,106,108,110,112,114,116,118,120,122,124,126,-1,-1,-1,-1,-1,-1,-1,-1,-1,-1,-1,-1,-1,-1,-1,-1,-1,-1,-1,-1,-1,-1,-1,-1,-1,-1,-1,-1,-1,-1,-1,-1,-1,-1,-1,-1,-1,-1,-1,-1,-1,-1,-1,-1,-1,-1,-1,-1,-1,-1,-1,-1,-1,-1,-1,-1,-1,-1,-1,-1,-1,-1,-1,-1],"split_conditions":[8.2E0,3.8E0,1.48E1,1.8E0,6.025287E0,1.1E1,1.98E1,1.0418904E0,2.6E0,5E0,7.171246E0,9.6E0,1.28E1,1.68E1,2.58E1,8E-1,1.602E0,1.726E0,3.2E0,1.3407333E0,1.6350666E0,2.842E0,2.2856333E0,2.3711E0,2.3150666E0,2.4007666E0,2.3428333E0,2.8739E0,1.8E1,2.24E1,2.98E1,1.602E0,1.602E0,1.2529538E0,1.3794667E0,2.2E0,1.7091666E0,1.3087E0,1.3087E0,4.2E0,4.4E0,5.6E0,5.6E0,6.6E0,6.6E0,7.6E0,7.586207E0,8.8E0,9E0,1.02E1,1.02E1,1.18E1,1.18E1,1.38E1,1.38E1,1.56E1,1.56E1,4.898E0,5.114E0,3.2694333E0,2.4E1,2.7E1,3.26E1,-5.4267973E-2,-6.491366E-2,-4.8707932E-2,-5.7505894E-2,-4.502501E-2,-4.162634E-2,-4.9962E-2,-5.782324E-2,-3.6808304E-2,-3.1849846E-2,-4.112803E-2,-5.0799187E-2,-2.5435105E-2,-3.6218E-2,-1.614623E-2,-2.66818E-2,-9.20953E-3,-8.5175125E-4,-1.875637E-2,-1.0791824E-2,7.2044185E-3,1.5214898E-2,-2.9936552E-3,5.666875E-3,2.2815434E-2,2.960447E-2,1.3717371E-2,2.1182908E-2,3.4791123E-2,4.268923E-2,2.2005524E-2,2.9354438E-2,5.1735766E-2,6.2462788E-2,3.8379036E-2,5.0009828E-2,7.583424E-2,8.6087584E-2,6.161625E-2,7.179224E-2,9.771623E-2,1.1111199E-1,8.254688E-2,9.5249444E-2,1.2651384E-1,1.4112814E-1,1.0995769E-1,1.2551567E-1,1.5001027E-1,1.6421421E-1,1.3413715E-1,1.4922781E-1,1.847487E-1,1.6831657E-1,2.0562695E-1,1.8998116E-1,2.353893E-1,2.1827309E-1,2.5736818E-1,2.779691E-1,2.987291E-1,3.2625073E-1,3.597546E-1,4.1105038E-1],"split_indices":[2,2,2,2,2,2,2,2,2,2,2,2,2,2,2,2,16,16,2,11,11,16,11,11,11,11,11,11,2,2,2,16,16,2,11,2,11,11,11,2,2,2,2,2,2,2,2,2,2,2,2,2,2,2,2,2,2,16,16,11,2,2,2,0,0,0,0,0,0,0,0,0,0,0,0,0,0,0,0,0,0,0,0,0,0,0,0,0,0,0,0,0,0,0,0,0,0,0,0,0,0,0,0,0,0,0,0,0,0,0,0,0,0,0,0,0,0,0,0,0,0,0,0,0,0,0,0],"split_type":[0,0,0,0,0,0,0,0,0,0,0,0,0,0,0,0,0,0,0,0,0,0,0,0,0,0,0,0,0,0,0,0,0,0,0,0,0,0,0,0,0,0,0,0,0,0,0,0,0,0,0,0,0,0,0,0,0,0,0,0,0,0,0,0,0,0,0,0,0,0,0,0,0,0,0,0,0,0,0,0,0,0,0,0,0,0,0,0,0,0,0,0,0,0,0,0,0,0,0,0,0,0,0,0,0,0,0,0,0,0,0,0,0,0,0,0,0,0,0,0,0,0,0,0,0,0,0],"sum_hessian":[1.321696E6,1.101076E6,2.2062E5,7.19691E5,3.81385E5,1.60314E5,6.0306E4,4.89752E5,2.29939E5,2.28204E5,1.53181E5,9.4873E4,6.5441E4,4.2362E4,1.7944E4,2.21052E5,2.687E5,1.59584E5,7.0355E4,4.5125E4,1.83079E5,9.7839E4,5.5342E4,5.0086E4,4.4787E4,3.8536E4,2.6905E4,2.48E4,1.7562E4,1.4098E4,3.846E3,4.9384E4,1.71668E5,2.33196E5,3.5504E4,1.2169E5,3.7894E4,4.2338E4,2.8017E4,3.1607E4,1.3518E4,1.37729E5,4.535E4,5.3995E4,4.3844E4,4.284E4,1.2502E4,3.5908E4,1.4178E4,2.3114E4,2.1673E4,2.0288E4,1.8248E4,1.1355E4,1.555E4,1.65E4,8.3E3,8.729E3,8.833E3,7.989E3,6.109E3,2.553E3,1.293E3,4.683E4,2.554E3,1.58303E5,1.3365E4,7.9068E4,1.54128E5,2.9151E4,6.353E3,8.3264E4,3.8426E4,3.3238E4,4.656E3,3.4475E4,7.863E3,2.1095E4,6.922E3,1.2713E4,1.8894E4,6.624E3,6.894E3,5.5364E4,8.2365E4,1.4462E4,3.0888E4,2.8622E4,2.5373E4,1.9855E4,2.3989E4,2.0547E4,2.2293E4,5.228E3,7.274E3,1.8023E4,1.7885E4,7.676E3,6.502E3,1.0695E4,1.2419E4,1.0203E4,1.147E4,1.0709E4,9.579E3,8.63E3,9.618E3,6.21E3,5.145E3,7.989E3,7.561E3,7.778E3,8.722E3,3.786E3,4.514E3,4.652E3,4.077E3,4.941E3,3.892E3,4.972E3,3.017E3,3.214E3,2.895E3,1.175E3,1.378E3,6.53E2,6.4E2],"tree_param":{"num_deleted":"0","num_feature":"23","num_nodes":"127","size_leaf_vector":"1"}},{"base_weights":[-1.2786392E-4,-2.0378962E-1,1.0161989E0,-3.822785E-1,1.3294056E-1,7.3518324E-1,1.7668525E0,-4.224311E-1,-2.9669365E-1,5.7172213E-2,2.4568301E-1,5.691337E-1,9.7464293E-1,1.5387095E0,2.4904075E0,-4.5545885E-1,-3.9520472E-1,-3.3230895E-1,-2.1580486E-1,-5.0110493E-2,9.235175E-2,1.9078486E-1,3.1108066E-1,4.7926122E-1,6.691882E-1,8.739988E-1,1.1175126E0,1.402609E0,1.7922206E0,2.3309352E0,3.201131E0,-4.7625083E-1,-4.3530568E-1,-3.8508925E-1,-4.630358E-1,-3.1605905E-1,-3.7835968E-1,-1.7918704E-1,-2.560549E-1,-1.4877651E-2,-9.983189E-2,1.1928088E-1,4.4237863E-2,2.2240642E-1,1.3947654E-1,3.5181794E-1,2.5808263E-1,5.4751855E-1,4.343228E-1,7.310944E-1,6.032829E-1,9.4021344E-1,8.077252E-1,1.1695745E0,1.021883E0,1.3404037E0,1.5098455E0,1.6976835E0,1.9177231E0,2.1754737E0,2.5255976E0,3.0386996E0,3.7001202E0,-4.713205E-2,-5.5954546E-2,-4.282339E-2,-5.089354E-2,-4.0539272E-2,-3.7473295E-2,-5.306033E-2,-4.451001E-2,-3.3029094E-2,-2.8478626E-2,-4.4703327E-2,-3.590207E-2,-2.218889E-2,-1.4087342E-2,-2.8937478E-2,-2.0956332E-2,-6.3322745E-3,2.5541708E-3,-1.5264794E-2,-6.387818E-3,7.7321413E-3,1.4328194E-2,-4.5898822E-4,6.8327147E-3,2.0294828E-2,2.535832E-2,6.3213706E-3,1.6144838E-2,3.1652983E-2,4.056562E-2,1.823958E-2,2.8983438E-2,5.0020933E-2,5.9703898E-2,3.8128857E-2,4.7776137E-2,7.849426E-2,6.893561E-2,5.0944757E-2,6.3881025E-2,8.8303745E-2,1.0042819E-1,7.267544E-2,8.6324506E-2,1.0939808E-1,1.2312334E-1,9.382447E-2,1.09414876E-1,1.410943E-1,1.2733753E-1,1.4480881E-1,1.6014187E-1,1.8007316E-1,1.635893E-1,1.8562518E-1,2.0383897E-1,2.0845139E-1,2.2751084E-1,2.4411504E-1,2.675279E-1,2.9313466E-1,3.2563278E-1,3.4814832E-1,4.1103926E-1],"categories":[],"categories_nodes":[],"categories_segments":[],"categories_sizes":[],"default_left":[0,0,0,0,0,0,0,0,0,0,0,0,0,0,0,0,0,0,0,0,0,0,0,0,0,0,0,0,0,0,0,0,0,0,0,0,0,0,0,0,0,0,0,0,0,0,0,0,0,0,0,0,0,0,0,0,0,0,0,0,0,0,0,0,0,0,0,0,0,0,0,0,0,0,0,0,0,0,0,0,0,0,0,0,0,0,0,0,0,0,0,0,0,0,0,0,0,0,0,0,0,0,0,0,0,0,0,0,0,0,0,0,0,0,0,0,0,0,0,0,0,0,0,0,0,0,0],"id":7,"left_children":[1,3,5,7,9,11,13,15,17,19,21,23,25,27,29,31,33,35,37,39,41,43,45,47,49,51,53,55,57,59,61,63,65,67,69,71,73,75,77,79,81,83,85,87,89,91,93,95,97,99,101,103,105,107,109,111,113,115,117,119,121,123,125,-1,-1,-1,-1,-1,-1,-1,-1,-1,-1,-1,-1,-1,-1,-1,-1,-1,-1,-1,-1,-1,-1,-1,-1,-1,-1,-1,-1,-1,-1,-1,-1,-1,-1,-1,-1,-1,-1,-1,-1,-1,-1,-1,-1,-1,-1,-1,-1,-1,-1,-1,-1,-1,-1,-1,-1,-1,-1,-1,-1,-1,-1,-1,-1],"loss_changes":[2.7354456E5,6.616928E4,4.6536844E4,2.4725312E3,3.25804E3,6.3822734E3,9.915969E3,4.4021875E2,6.618906E2,8.609122E2,5.503086E2,8.5208984E2,9.4416797E2,1.5739219E3,1.6250938E3,9.252344E1,1.8403125E2,1.1926367E2,1.0348755E2,9.8677124E1,2.2256152E2,1.3518555E2,1.509458E2,1.529541E2,1.8256055E2,1.6849414E2,1.3403906E2,1.9632031E2,1.8607031E2,3.5063672E2,2.0249023E2,4.4460938E1,5.830078E1,4.8972656E1,4.1979492E1,5.239258E1,5.5095703E1,6.0152954E1,5.1773438E1,6.455887E1,4.4351227E1,1.1090271E2,7.250755E1,3.122754E1,5.3243164E1,7.5012695E1,7.3020996E1,4.614209E1,6.9206055E1,5.143164E1,7.212012E1,6.9765625E1,8.605957E1,8.059961E1,5.6895508E1,8.722266E1,5.9367188E1,5.5060547E1,4.7009766E1,5.461914E1,5.94375E1,3.7064453E1,4.3367188E1,0E0,0E0,0E0,0E0,0E0,0E0,0E0,0E0,0E0,0E0,0E0,0E0,0E0,0E0,0E0,0E0,0E0,0E0,0E0,0E0,0E0,0E0,0E0,0E0,0E0,0E0,0E0,0E0,0E0,0E0,0E0,0E0,0E0,0E0,0E0,0E0,0E0,0E0,0E0,0E0,0E0,0E0,0E0,0E0,0E0,0E0,0E0,0E0,0E0,0E0,0E0,0E0,0E0,0E0,0E0,0E0,0E0,0E0,0E0,0E0,0E0,0E0,0E0,0E0],"parents":[2147483647,0,0,1,1,2,2,3,3,4,4,5,5,6,6,7,7,8,8,9,9,10,10,11,11,12,12,13,13,14,14,15,15,16,16,17,17,18,18,19,19,20,20,21,21,22,22,23,23,24,24,25,25,26,26,27,27,28,28,29,29,30,30,31,31,32,32,33,33,34,34,35,35,36,36,37,37,38,38,39,39,40,40,41,41,42,42,43,43,44,44,45,45,46,46,47,47,48,48,49,49,50,50,51,51,52,52,53,53,54,54,55,55,56,56,57,57,58,58,59,59,60,60,61,61,62,62],"right_children":[2,4,6,8,10,12,14,16,18,20,22,24,26,28,30,32,34,36,38,40,42,44,46,48,50,52,54,56,58,60,62,64,66,68,70,72,74,76,78,80,82,84,86,88,90,92,94,96,98,100,102,104,106,108,110,112,114,116,118,120,122,124,126,-1,-1,-1,-1,-1,-1,-1,-1,-1,-1,-1,-1,-1,-1,-1,-1,-1,-1,-1,-1,-1,-1,-1,-1,-1,-1,-1,-1,-1,-1,-1,-1,-1,-1,-1,-1,-1,-1,-1,-1,-1,-1,-1,-1,-1,-1,-1,-1,-1,-1,-1,-1,-1,-1,-1,-1,-1,-1,-1,-1,-1,-1,-1,-1],"split_conditions":[8.2E0,3.8E0,1.48E1,1.8E0,6.025287E0,1.1E1,2.08E1,1.0418904E0,2.6E0,5.087356E0,6.864537E0,9.6E0,1.28E1,1.74E1,2.7E1,1E0,1.616E0,1.63E0,1.602E0,2.112E0,2.404E0,1.7091666E0,3.426E0,3.002E0,2.3150666E0,2.3428333E0,2.9269E0,1.62E1,1.9E1,2.34E1,3.26E1,1.602E0,1.602E0,1.2529538E0,2.3979E2,2.2E0,2.3979E2,3E0,3.2E0,4.4E0,4.4E0,5.6E0,2.3899E2,6.6E0,2.3842E2,7.6E0,2.3847E2,8.8E0,8.8E0,2.804E0,2.3799E2,1.18E1,2.3799E2,1.36E1,2.3776E2,2.3428333E0,2.3799E2,2.4007666E0,2.377E2,2.3588E2,2.3588E2,2.98E1,8.526E0,-4.713205E-2,-5.5954546E-2,-4.282339E-2,-5.089354E-2,-4.0539272E-2,-3.7473295E-2,-5.306033E-2,-4.451001E-2,-3.3029094E-2,-2.8478626E-2,-4.4703327E-2,-3.590207E-2,-2.218889E-2,-1.4087342E-2,-2.8937478E-2,-2.0956332E-2,-6.3322745E-3,2.5541708E-3,-1.5264794E-2,-6.387818E-3,7.7321413E-3,1.4328194E-2,-4.5898822E-4,6.8327147E-3,2.0294828E-2,2.535832E-2,6.3213706E-3,1.6144838E-2,3.1652983E-2,4.056562E-2,1.823958E-2,2.8983438E-2,5.0020933E-2,5.9703898E-2,3.8128857E-2,4.7776137E-2,7.849426E-2,6.893561E-2,5.0944757E-2,6.3881025E-2,8.8303745E-2,1.0042819E-1,7.267544E-2,8.6324506E-2,1.0939808E-1,1.2312334E-1,9.382447E-2,1.09414876E-1,1.410943E-1,1.2733753E-1,1.4480881E-1,1.6014187E-1,1.8007316E-1,1.635893E-1,1.8562518E-1,2.0383897E-1,2.0845139E-1,2.2751084E-1,2.4411504E-1,2.675279E-1,2.9313466E-1,3.2563278E-1,3.4814832E-1,4.1103926E-1],"split_indices":[2,2,2,2,2,2,2,2,2,2,2,2,2,2,2,2,16,16,16,16,16,11,16,16,11,11,11,2,2,2,2,16,16,2,1,2,1,2,2,2,2,2,1,2,1,2,1,2,2,16,1,2,1,2,1,11,1,11,1,1,1,2,19,0,0,0,0,0,0,0,0,0,0,0,0,0,0,0,0,0,0,0,0,0,0,0,0,0,0,0,0,0,0,0,0,0,0,0,0,0,0,0,0,0,0,0,0,0,0,0,0,0,0,0,0,0,0,0,0,0,0,0,0,0,0,0,0],"split_type":[0,0,0,0,0,0,0,0,0,0,0,0,0,0,0,0,0,0,0,0,0,0,0,0,0,0,0,0,0,0,0,0,0,0,0,0,0,0,0,0,0,0,0,0,0,0,0,0,0,0,0,0,0,0,0,0,0,0,0,0,0,0,0,0,0,0,0,0,0,0,0,0,0,0,0,0,0,0,0,0,0,0,0,0,0,0,0,0,0,0,0,0,0,0,0,0,0,0,0,0,0,0,0,0,0,0,0,0,0,0,0,0,0,0,0,0,0,0,0,0,0,0,0,0,0,0,0],"sum_hessian":[1.321553E6,1.100937E6,2.20616E5,7.19536E5,3.81401E5,1.60524E5,6.0092E4,4.89759E5,2.29777E5,2.28105E5,1.53296E5,9.4794E4,6.573E4,4.5689E4,1.4403E4,2.21295E5,2.68464E5,1.59532E5,7.0245E4,5.6328E4,1.71777E5,8.334E4,6.9956E4,4.9941E4,4.4853E4,3.8568E4,2.7162E4,2.9733E4,1.5956E4,1.1767E4,2.636E3,1.0891E5,1.12385E5,2.3363E5,3.4834E4,1.17927E5,4.1605E4,3.6785E4,3.346E4,3.2968E4,2.336E4,1.10134E5,6.1643E4,5.156E4,3.178E4,3.955E4,3.0406E4,1.9822E4,3.0119E4,2.3123E4,2.173E4,1.9286E4,1.9282E4,1.758E4,9.582E3,1.8826E4,1.0907E4,9.109E3,6.847E3,6.549E3,5.218E3,1.994E3,6.42E2,1.0283E5,6.08E3,1.02543E5,9.842E3,7.8903E4,1.54727E5,7.301E3,2.7533E4,8.1038E4,3.6889E4,9.137E3,3.2468E4,1.7394E4,1.9391E4,1.9488E4,1.3972E4,1.4995E4,1.7973E4,9.46E3,1.39E4,4.0076E4,7.0058E4,2.0365E4,4.1278E4,3.1751E4,1.9809E4,7.109E3,2.4671E4,2.3895E4,1.5655E4,8.988E3,2.1418E4,1.0143E4,9.679E3,1.3566E4,1.6553E4,1.0089E4,1.3034E4,5.972E3,1.5758E4,1.0199E4,9.087E3,7.849E3,1.1433E4,7.906E3,9.674E3,4.448E3,5.134E3,9.163E3,9.663E3,6.524E3,4.383E3,3.404E3,5.705E3,4.547E3,2.3E3,3.435E3,3.114E3,3.347E3,1.871E3,1.345E3,6.49E2,4.25E2,2.17E2],"tree_param":{"num_deleted":"0","num_feature":"23","num_nodes":"127","size_leaf_vector":"1"}},{"base_weights":[5.0894776E-4,-1.7512356E-1,9.5984226E-1,-3.4124234E-1,1.3545376E-1,7.2021836E-1,1.6646554E0,-3.6822918E-1,-2.2227597E-1,7.510833E-2,2.6891527E-1,5.7019365E-1,9.566919E-1,1.453539E0,2.2810502E0,-3.9973384E-1,-3.337134E-1,-2.594431E-1,-1.5462849E-1,-1.33755915E-2,1.0820799E-1,2.2482032E-1,3.4118223E-1,4.93682E-1,6.7734766E-1,8.525223E-1,1.0832224E0,1.3333992E0,1.676215E0,2.1273088E0,2.8846264E0,-4.2864868E-1,-3.8411003E-1,-3.2396296E-1,-3.8708273E-1,-2.3644948E-1,-2.9390523E-1,-1.1824429E-1,-1.966289E-1,1.8535303E-2,-6.167288E-2,1.3004537E-1,6.187977E-2,2.5503334E-1,1.7813723E-1,3.991347E-1,2.9797855E-1,5.404592E-1,4.3603012E-1,7.273238E-1,6.172418E-1,9.036408E-1,7.841106E-1,1.1409961E0,1.0056459E0,1.2689202E0,1.4202011E0,1.5909549E0,1.7701185E0,2.0056002E0,2.2934263E0,2.735067E0,3.331005E0,-4.242469E-2,-5.0375193E-2,-3.76394E-2,-4.5412872E-2,-3.37663E-2,-2.9812783E-2,-4.5015227E-2,-3.70465E-2,-2.5458043E-2,-1.9869907E-2,-3.553858E-2,-2.7493453E-2,-1.4447344E-2,-7.3902234E-3,-2.613014E-2,-1.715715E-2,-2.9000186E-3,4.7699288E-3,-1.0854796E-2,-2.9875548E-3,1.0285168E-2,1.742063E-2,2.5830655E-3,9.775773E-3,2.2381516E-2,2.8473264E-2,9.378395E-3,2.0136844E-2,3.6423262E-2,4.286037E-2,2.3171553E-2,3.276482E-2,4.9037058E-2,5.8777194E-2,3.4738496E-2,4.7243655E-2,7.573195E-2,6.3773476E-2,5.3422708E-2,6.617761E-2,8.523313E-2,9.606439E-2,6.955763E-2,8.5168414E-2,1.0650726E-1,1.1849075E-1,9.227669E-2,1.08709745E-1,1.3114326E-1,1.14425436E-1,1.3603412E-1,1.5106426E-1,1.5352574E-1,1.7013516E-1,1.7153987E-1,1.8939953E-1,1.9114964E-1,2.0886753E-1,2.4086654E-1,2.2017668E-1,2.6443806E-1,2.91411E-1,3.167207E-1,3.5303935E-1],"categories":[],"categories_nodes":[],"categories_segments":[],"categories_sizes":[],"default_left":[0,0,0,0,0,0,0,0,0,0,0,0,0,0,0,0,0,0,0,0,0,0,0,0,0,0,0,0,0,0,0,0,0,0,0,0,0,0,0,0,0,0,0,0,0,0,0,0,0,0,0,0,0,0,0,0,0,0,0,0,0,0,0,0,0,0,0,0,0,0,0,0,0,0,0,0,0,0,0,0,0,0,0,0,0,0,0,0,0,0,0,0,0,0,0,0,0,0,0,0,0,0,0,0,0,0,0,0,0,0,0,0,0,0,0,0,0,0,0,0,0,0,0,0,0,0,0],"id":8,"left_children":[1,3,5,7,9,11,13,15,17,19,21,23,25,27,29,31,33,35,37,39,41,43,45,47,49,51,53,55,57,59,61,63,65,67,69,71,73,75,77,79,81,83,85,87,89,91,93,95,97,99,101,103,105,107,109,111,113,115,117,119,121,123,125,-1,-1,-1,-1,-1,-1,-1,-1,-1,-1,-1,-1,-1,-1,-1,-1,-1,-1,-1,-1,-1,-1,-1,-1,-1,-1,-1,-1,-1,-1,-1,-1,-1,-1,-1,-1,-1,-1,-1,-1,-1,-1,-1,-1,-1,-1,-1,-1,-1,-1,-1,-1,-1,-1,-1,-1,-1,-1,-1,-1,-1,-1,-1,-1],"loss_changes":[2.2265631E5,5.7628348E4,3.4535984E4,2.3363438E3,3.1348936E3,5.4136484E3,6.7484062E3,6.448828E2,3.3828418E2,7.8506006E2,3.861377E2,7.6521094E2,7.7985547E2,1.0317422E3,1.222E3,1.3992969E2,1.4717773E2,6.874756E1,7.289697E1,1.1246938E2,1.9734766E2,1.0612378E2,1.1486865E2,1.4668848E2,1.1638867E2,1.12927734E2,1.1871875E2,1.3873438E2,1.0559375E2,2.0874219E2,1.7007227E2,3.5748047E1,1.0860547E2,8.4615234E1,4.565674E1,3.5605713E1,4.043335E1,2.9729767E1,3.584662E1,6.0919243E1,4.3270508E1,1.5919849E2,8.082785E1,4.230371E1,5.7944946E1,2.001538E1,5.165918E1,7.097949E1,7.861035E1,5.6573242E1,6.49541E1,5.3555664E1,8.258887E1,4.9814453E1,7.611621E1,7.491016E1,5.583789E1,4.108789E1,4.0373047E1,4.3679688E1,4.175586E1,2.5027344E1,1.066748E1,0E0,0E0,0E0,0E0,0E0,0E0,0E0,0E0,0E0,0E0,0E0,0E0,0E0,0E0,0E0,0E0,0E0,0E0,0E0,0E0,0E0,0E0,0E0,0E0,0E0,0E0,0E0,0E0,0E0,0E0,0E0,0E0,0E0,0E0,0E0,0E0,0E0,0E0,0E0,0E0,0E0,0E0,0E0,0E0,0E0,0E0,0E0,0E0,0E0,0E0,0E0,0E0,0E0,0E0,0E0,0E0,0E0,0E0,0E0,0E0,0E0,0E0,0E0,0E0],"parents":[2147483647,0,0,1,1,2,2,3,3,4,4,5,5,6,6,7,7,8,8,9,9,10,10,11,11,12,12,13,13,14,14,15,15,16,16,17,17,18,18,19,19,20,20,21,21,22,22,23,23,24,24,25,25,26,26,27,27,28,28,29,29,30,30,31,31,32,32,33,33,34,34,35,35,36,36,37,37,38,38,39,39,40,40,41,41,42,42,43,43,44,44,45,45,46,46,47,47,48,48,49,49,50,50,51,51,52,52,53,53,54,54,55,55,56,56,57,57,58,58,59,59,60,60,61,61,62,62],"right_children":[2,4,6,8,10,12,14,16,18,20,22,24,26,28,30,32,34,36,38,40,42,44,46,48,50,52,54,56,58,60,62,64,66,68,70,72,74,76,78,80,82,84,86,88,90,92,94,96,98,100,102,104,106,108,110,112,114,116,118,120,122,124,126,-1,-1,-1,-1,-1,-1,-1,-1,-1,-1,-1,-1,-1,-1,-1,-1,-1,-1,-1,-1,-1,-1,-1,-1,-1,-1,-1,-1,-1,-1,-1,-1,-1,-1,-1,-1,-1,-1,-1,-1,-1,-1,-1,-1,-1,-1,-1,-1,-1,-1,-1,-1,-1,-1,-1,-1,-1,-1,-1,-1,-1,-1,-1,-1],"split_conditions":[8.6E0,4E0,1.54E1,2.1564984E0,6.6E0,1.16E1,2.12E1,1.2529538E0,3E0,5.4E0,7.586207E0,1.02E1,1.34E1,1.8E1,2.7E1,1E0,1.726E0,1.544E0,1.752E0,2.132E0,2.842E0,3.426E0,2.934E0,3.718E0,3.84E0,4.432E0,4.544E0,1.66E1,1.94E1,2.38E1,3.26E1,1.616E0,1.602E0,1.8E0,2.3976E2,2.6E0,2.3979E2,3.6E0,2.3979E2,4.8E0,4.8E0,6E0,6E0,7E0,2.3799E2,8E0,2.3842E2,9.4E0,2.3799E2,1.698E0,2.3799E2,1.24E1,2.3799E2,1.42E1,2.3782E2,2.5E1,2.3799E2,2.3799E2,2.3782E2,2.3542E2,2.2E1,2.98E1,8.694E0,-4.242469E-2,-5.0375193E-2,-3.76394E-2,-4.5412872E-2,-3.37663E-2,-2.9812783E-2,-4.5015227E-2,-3.70465E-2,-2.5458043E-2,-1.9869907E-2,-3.553858E-2,-2.7493453E-2,-1.4447344E-2,-7.3902234E-3,-2.613014E-2,-1.715715E-2,-2.9000186E-3,4.7699288E-3,-1.0854796E-2,-2.9875548E-3,1.0285168E-2,1.742063E-2,2.5830655E-3,9.775773E-3,2.2381516E-2,2.8473264E-2,9.378395E-3,2.0136844E-2,3.6423262E-2,4.286037E-2,2.3171553E-2,3.276482E-2,4.9037058E-2,5.8777194E-2,3.4738496E-2,4.7243655E-2,7.573195E-2,6.3773476E-2,5.3422708E-2,6.617761E-2,8.523313E-2,9.606439E-2,6.955763E-2,8.5168414E-2,1.0650726E-1,1.1849075E-1,9.227669E-2,1.08709745E-1,1.3114326E-1,1.14425436E-1,1.3603412E-1,1.5106426E-1,1.5352574E-1,1.7013516E-1,1.7153987E-1,1.8939953E-1,1.9114964E-1,2.0886753E-1,2.4086654E-1,2.2017668E-1,2.6443806E-1,2.91411E-1,3.167207E-1,3.5303935E-1],"split_indices":[2,2,2,2,2,2,2,2,2,2,2,2,2,2,2,2,16,16,16,16,16,16,16,16,16,16,16,2,2,2,2,16,16,2,1,2,1,2,1,2,2,2,2,2,1,2,1,2,1,15,1,2,1,2,1,4,1,1,1,1,4,2,22,0,0,0,0,0,0,0,0,0,0,0,0,0,0,0,0,0,0,0,0,0,0,0,0,0,0,0,0,0,0,0,0,0,0,0,0,0,0,0,0,0,0,0,0,0,0,0,0,0,0,0,0,0,0,0,0,0,0,0,0,0,0,0,0],"split_type":[0,0,0,0,0,0,0,0,0,0,0,0,0,0,0,0,0,0,0,0,0,0,0,0,0,0,0,0,0,0,0,0,0,0,0,0,0,0,0,0,0,0,0,0,0,0,0,0,0,0,0,0,0,0,0,0,0,0,0,0,0,0,0,0,0,0,0,0,0,0,0,0,0,0,0,0,0,0,0,0,0,0,0,0,0,0,0,0,0,0,0,0,0,0,0,0,0,0,0,0,0,0,0,0,0,0,0,0,0,0,0,0,0,0,0,0,0,0,0,0,0,0,0,0,0,0,0],"sum_hessian":[1.321478E6,1.116984E6,2.04494E5,7.27738E5,3.89246E5,1.52611E5,5.1883E4,5.93177E5,1.34561E5,2.68048E5,1.21198E5,9.3375E4,5.9236E4,3.8649E4,1.3234E4,3.1011E5,2.83067E5,8.6844E4,4.7717E4,7.2973E4,1.95075E5,7.5273E4,4.5925E4,5.448E4,3.8895E4,3.2493E4,2.6743E4,2.5109E4,1.354E4,1.0551E4,2.683E3,1.08775E5,2.01335E5,2.39346E5,4.3721E4,5.2094E4,3.475E4,2.557E4,2.2147E4,4.3941E4,2.9032E4,1.3258E5,6.2495E4,4.5695E4,2.9578E4,1.9611E4,2.6314E4,3.0072E4,2.4408E4,2.1231E4,1.7664E4,1.859E4,1.3903E4,1.532E4,1.1423E4,1.4416E4,1.0693E4,7.106E3,6.434E3,6.097E3,4.454E3,2.015E3,6.68E2,1.02759E5,6.016E3,1.81356E5,1.9979E4,1.56398E5,8.2948E4,9.112E3,3.4609E4,3.5188E4,1.6906E4,8.19E3,2.656E4,1.6065E4,9.505E3,6.182E3,1.5965E4,1.6708E4,2.7233E4,1.1733E4,1.7299E4,8.2055E4,5.0525E4,3.1174E4,3.1321E4,2.2282E4,2.3413E4,6.388E3,2.319E4,8.984E3,1.0627E4,8.141E3,1.8173E4,1.4613E4,1.5459E4,7.109E3,1.7299E4,1.59E4,5.331E3,6.172E3,1.1492E4,9.792E3,8.798E3,6.023E3,7.88E3,5.623E3,9.697E3,5.668E3,5.755E3,1.0743E4,3.673E3,6.444E3,4.249E3,4.733E3,2.373E3,4.473E3,1.961E3,2.87E3,3.227E3,1.962E3,2.492E3,1.348E3,6.67E2,3.76E2,2.92E2],"tree_param":{"num_deleted":"0","num_feature":"23","num_nodes":"127","size_leaf_vector":"1"}},{"base_weights":[-2.2140138E-4,-1.6514643E-1,8.242802E-1,-3.123273E-1,1.0271627E-1,5.814949E-1,1.3994757E0,-3.423637E-1,-2.459351E-1,2.7974483E-2,1.8436354E-1,4.5087528E-1,7.59164E-1,1.1952349E0,1.9380276E0,-3.6934254E-1,-3.1996286E-1,-2.763047E-1,-1.9835807E-1,-6.2274624E-2,6.05052E-2,1.4412168E-1,2.5175276E-1,3.7705898E-1,5.1963615E-1,6.813083E-1,8.6048186E-1,1.0935774E0,1.3700519E0,1.7697214E0,2.4136527E0,-4.03085E-1,-3.5967815E-1,-3.0843207E-1,-3.5581756E-1,-2.696307E-1,-3.6246878E-1,-1.8411455E-1,-2.6304176E-1,-3.8436987E-2,-1.2245162E-1,7.81519E-2,2.0065673E-3,1.6833794E-1,9.943384E-2,2.723864E-1,1.6708665E-1,4.095631E-1,2.9376376E-1,5.7308847E-1,4.6498996E-1,7.3380786E-1,6.188112E-1,9.290039E-1,8.0409557E-1,1.1310639E0,9.7669953E-1,1.3001825E0,1.4616722E0,1.6491653E0,1.903811E0,2.255854E0,2.8093557E0,-3.9637137E-2,-4.5433786E-2,-3.5176437E-2,-3.965794E-2,-3.256197E-2,-2.9964654E-2,-3.4685202E-2,-4.2972006E-2,-2.5787903E-2,-2.8766695E-2,-3.4916606E-2,-5.057559E-2,-2.0495988E-2,-1.412714E-2,-2.4552312E-2,-3.8427178E-2,-7.1938173E-3,-4.092448E-4,-1.0515201E-2,-2.0396497E-2,5.265595E-3,1.0190061E-2,-5.1413286E-3,2.7295954E-3,1.4720666E-2,1.947574E-2,3.3842623E-3,1.192617E-2,2.4480624E-2,3.1242756E-2,3.3743083E-3,2.0300226E-2,3.820993E-2,4.4653263E-2,1.8613731E-2,3.3219125E-2,5.3422857E-2,6.244698E-2,3.8386364E-2,4.9420875E-2,6.970556E-2,7.7852845E-2,5.4942645E-2,6.625954E-2,9.5061444E-2,8.021802E-2,7.386694E-2,8.644613E-2,1.0703655E-1,1.2131411E-1,8.9201346E-2,1.03938855E-1,1.3432775E-1,1.1739973E-1,1.5100713E-1,1.3528584E-1,1.725742E-1,1.5722053E-1,1.9819944E-1,1.8109792E-1,2.398567E-1,2.17495E-1,2.622721E-1,2.98474E-1],"categories":[],"categories_nodes":[],"categories_segments":[],"categories_sizes":[],"default_left":[0,0,0,0,0,0,0,0,0,0,0,0,0,0,0,0,0,0,0,0,0,0,0,0,0,0,0,0,0,0,0,0,0,0,0,0,0,0,0,0,0,0,0,0,0,0,0,0,0,0,0,0,0,0,0,0,0,0,0,0,0,0,0,0,0,0,0,0,0,0,0,0,0,0,0,0,0,0,0,0,0,0,0,0,0,0,0,0,0,0,0,0,0,0,0,0,0,0,0,0,0,0,0,0,0,0,0,0,0,0,0,0,0,0,0,0,0,0,0,0,0,0,0,0,0,0,0],"id":9,"left_children":[1,3,5,7,9,11,13,15,17,19,21,23,25,27,29,31,33,35,37,39,41,43,45,47,49,51,53,55,57,59,61,63,65,67,69,71,73,75,77,79,81,83,85,87,89,91,93,95,97,99,101,103,105,107,109,111,113,115,117,119,121,123,125,-1,-1,-1,-1,-1,-1,-1,-1,-1,-1,-1,-1,-1,-1,-1,-1,-1,-1,-1,-1,-1,-1,-1,-1,-1,-1,-1,-1,-1,-1,-1,-1,-1,-1,-1,-1,-1,-1,-1,-1,-1,-1,-1,-1,-1,-1,-1,-1,-1,-1,-1,-1,-1,-1,-1,-1,-1,-1,-1,-1,-1,-1,-1,-1],"loss_changes":[1.7975389E5,4.3428234E4,3.077014E4,1.4176406E3,2.3838062E3,3.5955E3,7.1913047E3,2.9569922E2,3.19917E2,5.987477E2,5.0624512E2,4.5305664E2,5.172578E2,8.4121875E2,1.435125E3,7.226172E1,1.1045703E2,7.7631836E1,7.9448E1,7.750728E1,1.5474994E2,1.2648047E2,1.2189307E2,1.1648877E2,1.3476953E2,1.2136133E2,1.0945117E2,1.3028906E2,1.0969141E2,2.1161719E2,2.8694922E2,1.6827148E1,5.026758E1,3.0458984E1,4.296582E1,2.6515625E1,1.8339233E1,6.3126953E1,3.2970947E1,4.4533012E1,2.159755E1,6.9727234E1,4.6936295E1,4.22937E1,5.3427094E1,6.1899902E1,6.550827E1,3.1282715E1,4.9952515E1,4.6320312E1,5.4009277E1,3.2612305E1,5.114795E1,3.4507812E1,6.1186523E1,1.11791016E2,3.7774902E1,5.2251953E1,3.7635742E1,3.855664E1,4.201172E1,3.3615234E1,3.586914E1,0E0,0E0,0E0,0E0,0E0,0E0,0E0,0E0,0E0,0E0,0E0,0E0,0E0,0E0,0E0,0E0,0E0,0E0,0E0,0E0,0E0,0E0,0E0,0E0,0E0,0E0,0E0,0E0,0E0,0E0,0E0,0E0,0E0,0E0,0E0,0E0,0E0,0E0,0E0,0E0,0E0,0E0,0E0,0E0,0E0,0E0,0E0,0E0,0E0,0E0,0E0,0E0,0E0,0E0,0E0,0E0,0E0,0E0,0E0,0E0,0E0,0E0,0E0,0E0],"parents":[2147483647,0,0,1,1,2,2,3,3,4,4,5,5,6,6,7,7,8,8,9,9,10,10,11,11,12,12,13,13,14,14,15,15,16,16,17,17,18,18,19,19,20,20,21,21,22,22,23,23,24,24,25,25,26,26,27,27,28,28,29,29,30,30,31,31,32,32,33,33,34,34,35,35,36,36,37,37,38,38,39,39,40,40,41,41,42,42,43,43,44,44,45,45,46,46,47,47,48,48,49,49,50,50,51,51,52,52,53,53,54,54,55,55,56,56,57,57,58,58,59,59,60,60,61,61,62,62],"right_children":[2,4,6,8,10,12,14,16,18,20,22,24,26,28,30,32,34,36,38,40,42,44,46,48,50,52,54,56,58,60,62,64,66,68,70,72,74,76,78,80,82,84,86,88,90,92,94,96,98,100,102,104,106,108,110,112,114,116,118,120,122,124,126,-1,-1,-1,-1,-1,-1,-1,-1,-1,-1,-1,-1,-1,-1,-1,-1,-1,-1,-1,-1,-1,-1,-1,-1,-1,-1,-1,-1,-1,-1,-1,-1,-1,-1,-1,-1,-1,-1,-1,-1,-1,-1,-1,-1,-1,-1,-1,-1,-1,-1,-1,-1,-1,-1,-1,-1,-1,-1,-1,-1,-1,-1,-1,-1],"split_conditions":[8.2E0,3.6E0,1.44E1,1.6283566E0,6E0,1.08E1,1.98E1,1.1479055E0,2.4E0,5E0,6.864537E0,9.4E0,1.24E1,1.68E1,2.52E1,8E-1,2.3732917E-1,1.3087E0,1.3087E0,1.3564E0,1.6350666E0,1.7091666E0,2.3428333E0,2.3428333E0,2.2856333E0,2.4007666E0,2.4007666E0,2.4E1,1.82E1,2.2E1,2.98E1,2.8932092E-1,2.5418338E-1,1.94E-1,1.3486333E0,1.8850233E-1,2.2856333E0,3E0,2.2856333E0,4.2E0,2.3150666E0,5.6E0,2.3899E2,6.4E0,2.3851E2,7.586207E0,2.3799E2,8.8E0,2.3799E2,2.3963E2,2.3799E2,2.3904E2,2.3799E2,9E0,2.3799E2,2.3794E2,1.54E1,2.4E1,3.2694333E0,2.9269E0,8E0,4E0,3.26E1,-3.9637137E-2,-4.5433786E-2,-3.5176437E-2,-3.965794E-2,-3.256197E-2,-2.9964654E-2,-3.4685202E-2,-4.2972006E-2,-2.5787903E-2,-2.8766695E-2,-3.4916606E-2,-5.057559E-2,-2.0495988E-2,-1.412714E-2,-2.4552312E-2,-3.8427178E-2,-7.1938173E-3,-4.092448E-4,-1.0515201E-2,-2.0396497E-2,5.265595E-3,1.0190061E-2,-5.1413286E-3,2.7295954E-3,1.4720666E-2,1.947574E-2,3.3842623E-3,1.192617E-2,2.4480624E-2,3.1242756E-2,3.3743083E-3,2.0300226E-2,3.820993E-2,4.4653263E-2,1.8613731E-2,3.3219125E-2,5.3422857E-2,6.244698E-2,3.8386364E-2,4.9420875E-2,6.970556E-2,7.7852845E-2,5.4942645E-2,6.625954E-2,9.5061444E-2,8.021802E-2,7.386694E-2,8.644613E-2,1.0703655E-1,1.2131411E-1,8.9201346E-2,1.03938855E-1,1.3432775E-1,1.1739973E-1,1.5100713E-1,1.3528584E-1,1.725742E-1,1.5722053E-1,1.9819944E-1,1.8109792E-1,2.398567E-1,2.17495E-1,2.622721E-1,2.98474E-1],"split_indices":[2,2,2,2,2,2,2,2,2,2,2,2,2,2,2,2,14,11,11,11,11,11,11,11,11,11,11,4,2,2,2,14,14,18,11,14,11,2,11,2,11,2,1,2,1,2,1,2,1,1,1,1,1,4,1,1,2,4,11,11,4,4,2,0,0,0,0,0,0,0,0,0,0,0,0,0,0,0,0,0,0,0,0,0,0,0,0,0,0,0,0,0,0,0,0,0,0,0,0,0,0,0,0,0,0,0,0,0,0,0,0,0,0,0,0,0,0,0,0,0,0,0,0,0,0,0,0],"split_type":[0,0,0,0,0,0,0,0,0,0,0,0,0,0,0,0,0,0,0,0,0,0,0,0,0,0,0,0,0,0,0,0,0,0,0,0,0,0,0,0,0,0,0,0,0,0,0,0,0,0,0,0,0,0,0,0,0,0,0,0,0,0,0,0,0,0,0,0,0,0,0,0,0,0,0,0,0,0,0,0,0,0,0,0,0,0,0,0,0,0,0,0,0,0,0,0,0,0,0,0,0,0,0,0,0,0,0,0,0,0,0,0,0,0,0,0,0,0,0,0,0,0,0,0,0,0,0],"sum_hessian":[1.321903E6,1.101559E6,2.20344E5,7.10929E5,3.9063E5,1.54945E5,6.5399E4,4.8948E5,2.21449E5,2.0394E5,1.8669E5,8.9298E4,6.5647E4,4.7419E4,1.798E4,2.22043E5,2.67437E5,1.35165E5,8.6284E4,5.4034E4,1.49906E5,1.16891E5,6.9799E4,4.3069E4,4.6229E4,3.7126E4,2.8521E4,2.9988E4,1.7431E4,1.3284E4,4.696E3,4.9428E4,1.72615E5,2.02366E5,6.5071E4,1.25452E5,9.713E3,7.0716E4,1.5568E4,3.8704E4,1.533E4,1.15165E5,3.4741E4,7.5808E4,4.1083E4,5.612E4,1.3679E4,3.0977E4,1.2092E4,2.3365E4,2.2864E4,2.0171E4,1.6955E4,1.2868E4,1.5653E4,2.2699E4,7.289E3,9.898E3,7.533E3,7.002E3,6.282E3,3.362E3,1.334E3,4.3711E4,5.717E3,1.42142E5,3.0473E4,6.8439E4,1.33927E5,5.8036E4,7.035E3,7.5969E4,4.9483E4,8.891E3,8.22E2,4.7568E4,2.3148E4,1.3605E4,1.963E3,1.9592E4,1.9112E4,1.2648E4,2.682E3,5.5541E4,5.9624E4,1.1162E4,2.3579E4,4.2123E4,3.3685E4,9.537E3,3.1546E4,3.3235E4,2.2885E4,2.903E3,1.0776E4,1.778E4,1.3197E4,3.183E3,8.909E3,1.331E4,1.0055E4,6.058E3,1.6806E4,1.1081E4,9.09E3,6.565E3,1.039E4,1.0989E4,1.879E3,7.518E3,8.135E3,1.3057E4,9.642E3,3.107E3,4.182E3,7.371E3,2.527E3,5.205E3,2.328E3,3.499E3,3.503E3,3.399E3,2.883E3,1.206E3,2.156E3,6.54E2,6.8E2],"tree_param":{"num_deleted":"0","num_feature":"23","num_nodes":"127","size_leaf_vector":"1"}},{"base_weights":[-1.0165084E-4,-1.4515871E-1,7.593119E-1,-2.7639675E-1,1.0559996E-1,5.627082E-1,1.3304081E0,-3.0272943E-1,-1.9579183E-1,5.4318327E-2,1.9896008E-1,4.4190586E-1,7.539208E-1,1.157638E0,1.8344555E0,-3.242546E-1,-2.7477586E-1,-2.274988E-1,-1.3646618E-1,-1.1173412E-2,8.194557E-2,1.6408616E-1,2.5806203E-1,3.7789845E-1,5.283218E-1,6.7990327E-1,8.6723614E-1,1.0616127E0,1.3375161E0,1.694608E0,2.2902243E0,-3.4788814E-1,-3.1146374E-1,-2.6695943E-1,-3.2232022E-1,-2.1245962E-1,-2.590669E-1,-1.0509878E-1,-1.684846E-1,2.7231466E-2,-4.0895745E-2,1.04593724E-1,4.760133E-2,1.9940396E-1,1.3712148E-1,3.0505997E-1,2.2310318E-1,4.153137E-1,3.2487097E-1,5.6825185E-1,4.7376412E-1,7.448018E-1,6.4148134E-1,9.141581E-1,7.9591995E-1,1.0993427E0,9.533883E-1,1.2683595E0,1.4155546E0,1.5966192E0,1.8205721E0,2.1823118E0,2.7136133E0,-3.613984E-2,-3.28752E-2,-3.0516157E-2,-3.7364863E-2,-2.8782252E-2,-2.5849849E-2,-3.8794156E-2,-3.092969E-2,-2.2563644E-2,-1.8440885E-2,-3.149866E-2,-2.4261503E-2,-1.3269692E-2,-6.645214E-3,-2.271324E-2,-1.4803866E-2,-1.5719784E-3,4.7280723E-3,-8.347492E-3,-1.437009E-3,8.847122E-3,1.4104569E-2,4.5615743E-4,6.6602016E-3,1.7461846E-2,2.2656558E-2,9.435957E-3,1.5915342E-2,3.316348E-2,2.6204912E-2,1.6858162E-2,2.4711449E-2,3.777607E-2,4.559573E-2,2.5463616E-2,3.5881527E-2,5.9379496E-2,4.9004044E-2,4.1260283E-2,5.1822174E-2,6.9795124E-2,7.935069E-2,5.807441E-2,6.896132E-2,9.357577E-2,7.9451494E-2,7.2197385E-2,8.640204E-2,1.0450905E-1,1.18126705E-1,8.4984206E-2,9.874552E-2,1.3204117E-1,1.1616842E-1,1.3633002E-1,1.5169987E-1,1.5328304E-1,1.6898344E-1,1.7494719E-1,1.9660337E-1,2.0488282E-1,2.2988944E-1,2.3951967E-1,2.8032717E-1],"categories":[],"categories_nodes":[],"categories_segments":[],"categories_sizes":[],"default_left":[0,0,0,0,0,0,0,0,0,0,0,0,0,0,0,0,0,0,0,0,0,0,0,0,0,0,0,0,0,0,0,0,0,0,0,0,0,0,0,0,0,0,0,0,0,0,0,0,0,0,0,0,0,0,0,0,0,0,0,0,0,0,0,0,0,0,0,0,0,0,0,0,0,0,0,0,0,0,0,0,0,0,0,0,0,0,0,0,0,0,0,0,0,0,0,0,0,0,0,0,0,0,0,0,0,0,0,0,0,0,0,0,0,0,0,0,0,0,0,0,0,0,0,0,0,0,0],"id":10,"left_children":[1,3,5,7,9,11,13,15,17,19,21,23,25,27,29,31,33,35,37,39,41,43,45,47,49,51,53,55,57,59,61,63,65,67,69,71,73,75,77,79,81,83,85,87,89,91,93,95,97,99,101,103,105,107,109,111,113,115,117,119,121,123,125,-1,-1,-1,-1,-1,-1,-1,-1,-1,-1,-1,-1,-1,-1,-1,-1,-1,-1,-1,-1,-1,-1,-1,-1,-1,-1,-1,-1,-1,-1,-1,-1,-1,-1,-1,-1,-1,-1,-1,-1,-1,-1,-1,-1,-1,-1,-1,-1,-1,-1,-1,-1,-1,-1,-1,-1,-1,-1,-1,-1,-1,-1,-1,-1],"loss_changes":[1.4558288E5,3.651683E4,2.379714E4,1.5460156E3,1.8251499E3,3.6417695E3,4.7247266E3,3.3026953E2,3.373667E2,4.4521832E2,2.7853613E2,5.3428516E2,5.1141406E2,6.9685156E2,8.7914844E2,9.365625E1,8.868164E1,5.544043E1,6.2730225E1,8.333505E1,1.3460693E2,8.092554E1,8.2336426E1,1.1001074E2,8.929883E1,9.1609375E1,7.99707E1,1.065918E2,7.4115234E1,1.27990234E2,1.4256836E2,2.8041016E1,7.876367E1,3.613867E1,2.869751E1,2.9224365E1,3.4619873E1,3.365445E1,3.7038086E1,2.7428936E1,4.6480927E1,6.1276733E1,5.6242035E1,2.4734741E1,4.5401184E1,2.4363281E1,3.761548E1,4.950244E1,5.4673096E1,4.7126465E1,4.7046387E1,3.0769531E1,6.743359E1,3.68291E1,4.76084E1,8.561328E1,2.3225098E1,3.992871E1,3.2916992E1,3.292578E1,4.447754E1,3.567285E1,1.2013672E1,0E0,0E0,0E0,0E0,0E0,0E0,0E0,0E0,0E0,0E0,0E0,0E0,0E0,0E0,0E0,0E0,0E0,0E0,0E0,0E0,0E0,0E0,0E0,0E0,0E0,0E0,0E0,0E0,0E0,0E0,0E0,0E0,0E0,0E0,0E0,0E0,0E0,0E0,0E0,0E0,0E0,0E0,0E0,0E0,0E0,0E0,0E0,0E0,0E0,0E0,0E0,0E0,0E0,0E0,0E0,0E0,0E0,0E0,0E0,0E0,0E0,0E0,0E0,0E0],"parents":[2147483647,0,0,1,1,2,2,3,3,4,4,5,5,6,6,7,7,8,8,9,9,10,10,11,11,12,12,13,13,14,14,15,15,16,16,17,17,18,18,19,19,20,20,21,21,22,22,23,23,24,24,25,25,26,26,27,27,28,28,29,29,30,30,31,31,32,32,33,33,34,34,35,35,36,36,37,37,38,38,39,39,40,40,41,41,42,42,43,43,44,44,45,45,46,46,47,47,48,48,49,49,50,50,51,51,52,52,53,53,54,54,55,55,56,56,57,57,58,58,59,59,60,60,61,61,62,62],"right_children":[2,4,6,8,10,12,14,16,18,20,22,24,26,28,30,32,34,36,38,40,42,44,46,48,50,52,54,56,58,60,62,64,66,68,70,72,74,76,78,80,82,84,86,88,90,92,94,96,98,100,102,104,106,108,110,112,114,116,118,120,122,124,126,-1,-1,-1,-1,-1,-1,-1,-1,-1,-1,-1,-1,-1,-1,-1,-1,-1,-1,-1,-1,-1,-1,-1,-1,-1,-1,-1,-1,-1,-1,-1,-1,-1,-1,-1,-1,-1,-1,-1,-1,-1,-1,-1,-1,-1,-1,-1,-1,-1,-1,-1,-1,-1,-1,-1,-1,-1,-1,-1,-1,-1,-1,-1,-1],"split_conditions":[8.4E0,4E0,1.52E1,2E0,6.4E0,1.14E1,2.1E1,1.2529538E0,2.8E0,5.4E0,7.280831E0,1E1,1.34E1,1.78E1,2.64E1,1E0,1.726E0,1.602E0,1.588E0,1.602E0,2.344E0,2.468E0,2.842E0,3.87E0,3.95E0,3.598E0,4.702E0,2.4E1,1.92E1,2.34E1,3.26E1,1.38E-1,1.706E0,1.62E-1,2.3923E2,2.4E0,2.3979E2,3.4E0,2.3973E2,4.6E0,4.8E0,6E0,2.3891E2,6.761981E0,2.3904E2,1.352E0,2.3851E2,9.2E0,2.3831E2,1.842E0,2.3851E2,1.22E1,2.381E2,2.4E1,2.3776E2,2.3805E2,2.3588E2,3E0,2.3764E2,2.3629E2,2.3609E2,2.8E1,7.884E0,-3.613984E-2,-3.28752E-2,-3.0516157E-2,-3.7364863E-2,-2.8782252E-2,-2.5849849E-2,-3.8794156E-2,-3.092969E-2,-2.2563644E-2,-1.8440885E-2,-3.149866E-2,-2.4261503E-2,-1.3269692E-2,-6.645214E-3,-2.271324E-2,-1.4803866E-2,-1.5719784E-3,4.7280723E-3,-8.347492E-3,-1.437009E-3,8.847122E-3,1.4104569E-2,4.5615743E-4,6.6602016E-3,1.7461846E-2,2.2656558E-2,9.435957E-3,1.5915342E-2,3.316348E-2,2.6204912E-2,1.6858162E-2,2.4711449E-2,3.777607E-2,4.559573E-2,2.5463616E-2,3.5881527E-2,5.9379496E-2,4.9004044E-2,4.1260283E-2,5.1822174E-2,6.9795124E-2,7.935069E-2,5.807441E-2,6.896132E-2,9.357577E-2,7.9451494E-2,7.2197385E-2,8.640204E-2,1.0450905E-1,1.18126705E-1,8.4984206E-2,9.874552E-2,1.3204117E-1,1.1616842E-1,1.3633002E-1,1.5169987E-1,1.5328304E-1,1.6898344E-1,1.7494719E-1,1.9660337E-1,2.0488282E-1,2.2988944E-1,2.3951967E-1,2.8032717E-1],"split_indices":[2,2,2,2,2,2,2,2,2,2,2,2,2,2,2,2,16,16,16,16,16,16,16,16,16,16,16,4,2,2,2,18,16,18,1,2,1,2,1,2,2,2,1,2,1,15,1,2,1,15,1,2,1,4,1,1,1,4,1,1,1,2,16,0,0,0,0,0,0,0,0,0,0,0,0,0,0,0,0,0,0,0,0,0,0,0,0,0,0,0,0,0,0,0,0,0,0,0,0,0,0,0,0,0,0,0,0,0,0,0,0,0,0,0,0,0,0,0,0,0,0,0,0,0,0,0,0],"split_type":[0,0,0,0,0,0,0,0,0,0,0,0,0,0,0,0,0,0,0,0,0,0,0,0,0,0,0,0,0,0,0,0,0,0,0,0,0,0,0,0,0,0,0,0,0,0,0,0,0,0,0,0,0,0,0,0,0,0,0,0,0,0,0,0,0,0,0,0,0,0,0,0,0,0,0,0,0,0,0,0,0,0,0,0,0,0,0,0,0,0,0,0,0,0,0,0,0,0,0,0,0,0,0,0,0,0,0,0,0,0,0,0,0,0,0,0,0,0,0,0,0,0,0,0,0,0,0],"sum_hessian":[1.321577E6,1.109626E6,2.11951E5,7.28405E5,3.81221E5,1.57673E5,5.4278E4,5.49038E5,1.79367E5,2.46063E5,1.35158E5,9.6629E4,6.1044E4,4.0425E4,1.3853E4,3.10179E5,2.38859E5,1.16891E5,6.2476E4,7.3004E4,1.73059E5,8.5004E4,5.0154E4,5.5515E4,4.1114E4,3.6929E4,2.4115E4,2.636E4,1.4065E4,1.0604E4,3.249E3,1.08914E5,2.01265E5,2.0514E5,3.3719E4,7.9178E4,3.7713E4,3.1561E4,3.0915E4,3.185E4,4.1154E4,1.04286E5,6.8773E4,3.6799E4,4.8205E4,2.139E4,2.8764E4,3.2545E4,2.297E4,2.3734E4,1.738E4,1.3726E4,2.3203E4,1.4538E4,9.577E3,1.9539E4,6.821E3,7.466E3,6.599E3,5.972E3,4.632E3,2.594E3,6.55E2,6.3831E4,4.5083E4,1.8275E5,1.8515E4,5.918E4,1.4596E5,5.579E3,2.814E4,5.3867E4,2.5311E4,8.569E3,2.9144E4,1.8411E4,1.315E4,7.989E3,2.2926E4,1.0136E4,2.1714E4,1.5796E4,2.5358E4,7.2308E4,3.1978E4,2.1063E4,4.771E4,1.9245E4,1.7554E4,1.6393E4,3.1812E4,1.3217E4,8.173E3,8.797E3,1.9967E4,1.6921E4,1.5624E4,7.487E3,1.5483E4,1.7886E4,5.848E3,7.32E3,1.006E4,7.004E3,6.722E3,1.0264E4,1.2939E4,1.2309E4,2.229E3,4.597E3,4.98E3,1.1763E4,7.776E3,1.695E3,5.126E3,5.01E3,2.456E3,4.365E3,2.234E3,3.556E3,2.416E3,3.12E3,1.512E3,1.218E3,1.376E3,1.5E2,5.05E2],"tree_param":{"num_deleted":"0","num_feature":"23","num_nodes":"127","size_leaf_vector":"1"}},{"base_weights":[-8.615642E-5,-1.335695E-1,6.6785944E-1,-2.5299472E-1,8.343452E-2,4.7604594E-1,1.1478833E0,-2.7743813E-1,-1.9889687E-1,2.2650413E-2,1.4988026E-1,3.6454934E-1,6.2223357E-1,9.8333514E-1,1.5832946E0,-2.9944807E-1,-2.5922474E-1,-2.1791841E-1,-1.4929391E-1,-5.807386E-2,4.615552E-2,1.1040218E-1,1.9599418E-1,3.0438948E-1,4.2078927E-1,5.5754143E-1,7.170035E-1,8.99467E-1,1.1320496E0,1.4612068E0,2.0088062E0,-3.2728988E-1,-2.914651E-1,-2.5197917E-1,-3.0662143E-1,-2.1192868E-1,-2.885169E-1,-1.3470541E-1,-2.0704079E-1,-3.6694746E-2,-1.09744996E-1,6.111896E-2,-5.6153666E-3,1.3130341E-1,6.8381935E-2,2.1225122E-1,1.24932416E-1,3.328165E-1,2.3216714E-1,4.6293157E-1,3.702258E-1,6.0597026E-1,5.068296E-1,7.5860786E-1,6.4524287E-1,9.5097005E-1,8.373008E-1,1.2216535E0,1.0826464E0,1.3532149E0,1.572218E0,1.8719914E0,2.2795923E0,-3.21286E-2,-3.7722215E-2,-2.8458694E-2,-3.2456994E-2,-2.5814509E-2,-2.3445196E-2,-2.9922402E-2,-4.0317904E-2,-2.2168508E-2,-1.925276E-2,-2.770153E-2,-4.214502E-2,-1.4802474E-2,-1.0328404E-2,-1.9194344E-2,-3.252524E-2,-5.5120513E-3,-1.0266592E-3,-9.482946E-3,-1.8312706E-2,3.952065E-3,8.345407E-3,-3.6352288E-3,1.8934539E-3,1.6146371E-2,1.1707091E-2,8.450353E-3,2.379382E-3,1.844125E-2,2.4440197E-2,1.046026E-2,1.8002732E-2,3.6044177E-2,3.036041E-2,2.4943387E-2,1.5701791E-2,5.0327677E-2,4.335508E-2,3.4064066E-2,4.1118268E-2,6.2152844E-2,5.0701167E-2,5.3159263E-2,4.3689948E-2,7.7704735E-2,6.3216224E-2,6.0216274E-2,7.099538E-2,9.8523065E-2,8.3092526E-2,7.850585E-2,8.853874E-2,1.2663154E-1,1.08228944E-1,1.0239917E-1,1.1544132E-1,1.478125E-1,1.3058464E-1,1.6421236E-1,1.4884964E-1,2.0280567E-1,1.7920762E-1,2.1328942E-1,2.425245E-1],"categories":[],"categories_nodes":[],"categories_segments":[],"categories_sizes":[],"default_left":[0,0,0,0,0,0,0,0,0,0,0,0,0,0,0,0,0,0,0,0,0,0,0,0,0,0,0,0,0,0,0,0,0,0,0,0,0,0,0,0,0,0,0,0,0,0,0,0,0,0,0,0,0,0,0,0,0,0,0,0,0,0,0,0,0,0,0,0,0,0,0,0,0,0,0,0,0,0,0,0,0,0,0,0,0,0,0,0,0,0,0,0,0,0,0,0,0,0,0,0,0,0,0,0,0,0,0,0,0,0,0,0,0,0,0,0,0,0,0,0,0,0,0,0,0,0,0],"id":11,"left_children":[1,3,5,7,9,11,13,15,17,19,21,23,25,27,29,31,33,35,37,39,41,43,45,47,49,51,53,55,57,59,61,63,65,67,69,71,73,75,77,79,81,83,85,87,89,91,93,95,97,99,101,103,105,107,109,111,113,115,117,119,121,123,125,-1,-1,-1,-1,-1,-1,-1,-1,-1,-1,-1,-1,-1,-1,-1,-1,-1,-1,-1,-1,-1,-1,-1,-1,-1,-1,-1,-1,-1,-1,-1,-1,-1,-1,-1,-1,-1,-1,-1,-1,-1,-1,-1,-1,-1,-1,-1,-1,-1,-1,-1,-1,-1,-1,-1,-1,-1,-1,-1,-1,-1,-1,-1,-1],"loss_changes":[1.17808555E5,2.8539666E4,2.0262875E4,9.392344E2,1.5788623E3,2.5627617E3,4.5001094E3,1.9605469E2,2.0855273E2,3.873806E2,3.3997607E2,3.017002E2,4.167207E2,5.6775E2,8.9220703E2,4.914258E1,9.1865234E1,6.750928E1,5.15968E1,5.085669E1,1.2249051E2,8.836572E1,9.948706E1,8.842212E1,9.8069824E1,9.900781E1,8.190625E1,9.257617E1,7.145508E1,1.584336E2,1.3795801E2,1.4675293E1,3.9112305E1,2.5036133E1,2.5233398E1,2.7838379E1,1.898584E1,2.045996E1,2.1990845E1,1.5858715E1,1.4730362E1,5.917032E1,2.6754625E1,2.8825806E1,2.4026352E1,6.2697998E1,1.7947098E1,2.4850342E1,1.5762756E1,2.9584473E1,2.526123E1,3.1524414E1,3.398584E1,4.022754E1,2.7826172E1,6.474805E1,3.251953E1,3.4947266E1,4.346289E1,3.828125E1,3.6171875E1,2.8243164E1,2.2262695E1,0E0,0E0,0E0,0E0,0E0,0E0,0E0,0E0,0E0,0E0,0E0,0E0,0E0,0E0,0E0,0E0,0E0,0E0,0E0,0E0,0E0,0E0,0E0,0E0,0E0,0E0,0E0,0E0,0E0,0E0,0E0,0E0,0E0,0E0,0E0,0E0,0E0,0E0,0E0,0E0,0E0,0E0,0E0,0E0,0E0,0E0,0E0,0E0,0E0,0E0,0E0,0E0,0E0,0E0,0E0,0E0,0E0,0E0,0E0,0E0,0E0,0E0,0E0,0E0],"parents":[2147483647,0,0,1,1,2,2,3,3,4,4,5,5,6,6,7,7,8,8,9,9,10,10,11,11,12,12,13,13,14,14,15,15,16,16,17,17,18,18,19,19,20,20,21,21,22,22,23,23,24,24,25,25,26,26,27,27,28,28,29,29,30,30,31,31,32,32,33,33,34,34,35,35,36,36,37,37,38,38,39,39,40,40,41,41,42,42,43,43,44,44,45,45,46,46,47,47,48,48,49,49,50,50,51,51,52,52,53,53,54,54,55,55,56,56,57,57,58,58,59,59,60,60,61,61,62,62],"right_children":[2,4,6,8,10,12,14,16,18,20,22,24,26,28,30,32,34,36,38,40,42,44,46,48,50,52,54,56,58,60,62,64,66,68,70,72,74,76,78,80,82,84,86,88,90,92,94,96,98,100,102,104,106,108,110,112,114,116,118,120,122,124,126,-1,-1,-1,-1,-1,-1,-1,-1,-1,-1,-1,-1,-1,-1,-1,-1,-1,-1,-1,-1,-1,-1,-1,-1,-1,-1,-1,-1,-1,-1,-1,-1,-1,-1,-1,-1,-1,-1,-1,-1,-1,-1,-1,-1,-1,-1,-1,-1,-1,-1,-1,-1,-1,-1,-1,-1,-1,-1,-1,-1,-1,-1,-1,-1],"split_conditions":[8.2E0,3.6E0,1.46E1,1.8E0,6E0,1.08E1,2E1,1.1479055E0,2.6E0,4.8E0,6.761981E0,9.4E0,1.26E1,1.7E1,2.58E1,8E-1,1.602E0,1.3208333E0,1.3087E0,1.3087E0,1.6494666E0,1.7091666E0,2.3428333E0,2.3428333E0,2.3428333E0,2.3428333E0,2.8739E0,2.5649E0,2.3428333E0,2.22E1,2.98E1,1.278E0,1.278E0,1.528464E0,1.7091666E0,2.2E0,2.3428333E0,3.2E0,2.3428333E0,4.2E0,2.3150666E0,5.6E0,5.6E0,1.3087E0,2.3428333E0,7.4E0,7.8E0,2.868E0,3.2694333E0,2.734E0,1.02E1,6E0,3.2694333E0,2.4E1,1.38E1,2.6E1,1.56E1,1.9E1,1.84E1,2.2856333E0,2.2E1,3E0,3.26E1,-3.21286E-2,-3.7722215E-2,-2.8458694E-2,-3.2456994E-2,-2.5814509E-2,-2.3445196E-2,-2.9922402E-2,-4.0317904E-2,-2.2168508E-2,-1.925276E-2,-2.770153E-2,-4.214502E-2,-1.4802474E-2,-1.0328404E-2,-1.9194344E-2,-3.252524E-2,-5.5120513E-3,-1.0266592E-3,-9.482946E-3,-1.8312706E-2,3.952065E-3,8.345407E-3,-3.6352288E-3,1.8934539E-3,1.6146371E-2,1.1707091E-2,8.450353E-3,2.379382E-3,1.844125E-2,2.4440197E-2,1.046026E-2,1.8002732E-2,3.6044177E-2,3.036041E-2,2.4943387E-2,1.5701791E-2,5.0327677E-2,4.335508E-2,3.4064066E-2,4.1118268E-2,6.2152844E-2,5.0701167E-2,5.3159263E-2,4.3689948E-2,7.7704735E-2,6.3216224E-2,6.0216274E-2,7.099538E-2,9.8523065E-2,8.3092526E-2,7.850585E-2,8.853874E-2,1.2663154E-1,1.08228944E-1,1.0239917E-1,1.1544132E-1,1.478125E-1,1.3058464E-1,1.6421236E-1,1.4884964E-1,2.0280567E-1,1.7920762E-1,2.1328942E-1,2.425245E-1],"split_indices":[2,2,2,2,2,2,2,2,2,2,2,2,2,2,2,2,16,11,11,11,11,11,11,11,11,11,11,11,11,2,2,16,16,2,11,2,11,2,11,2,11,2,2,11,11,2,2,16,11,16,2,4,11,4,2,4,2,4,2,11,4,4,2,0,0,0,0,0,0,0,0,0,0,0,0,0,0,0,0,0,0,0,0,0,0,0,0,0,0,0,0,0,0,0,0,0,0,0,0,0,0,0,0,0,0,0,0,0,0,0,0,0,0,0,0,0,0,0,0,0,0,0,0,0,0,0,0],"split_type":[0,0,0,0,0,0,0,0,0,0,0,0,0,0,0,0,0,0,0,0,0,0,0,0,0,0,0,0,0,0,0,0,0,0,0,0,0,0,0,0,0,0,0,0,0,0,0,0,0,0,0,0,0,0,0,0,0,0,0,0,0,0,0,0,0,0,0,0,0,0,0,0,0,0,0,0,0,0,0,0,0,0,0,0,0,0,0,0,0,0,0,0,0,0,0,0,0,0,0,0,0,0,0,0,0,0,0,0,0,0,0,0,0,0,0,0,0,0,0,0,0,0,0,0,0,0,0],"sum_hessian":[1.32132E6,1.101246E6,2.20074E5,7.10327E5,3.90919E5,1.57243E5,6.2831E4,4.89258E5,2.21069E5,2.04158E5,1.86761E5,8.9208E4,6.8035E4,4.5601E4,1.723E4,2.21532E5,2.67726E5,1.5979E5,6.1279E4,4.604E4,1.58118E5,1.00622E5,8.6139E4,4.3105E4,4.6103E4,4.0438E4,2.7597E4,2.9162E4,1.6439E4,1.3392E4,3.838E3,4.9356E4,1.72176E5,2.32231E5,3.5495E4,1.47297E5,1.2493E4,4.8923E4,1.2356E4,3.2567E4,1.3473E4,1.22664E5,3.5454E4,6.7196E4,3.3426E4,7.01E4,1.6039E4,3.0928E4,1.2177E4,2.5141E4,2.0962E4,2.0679E4,1.9759E4,1.7463E4,1.0134E4,1.5941E4,1.3221E4,5.834E3,1.0605E4,6.795E3,6.597E3,2.555E3,1.283E3,4.4065E4,5.291E3,1.42565E5,2.9611E4,1.71785E5,6.0446E4,3.2973E4,2.522E3,9.8003E4,4.9294E4,1.1501E4,9.92E2,3.4356E4,1.4567E4,1.0959E4,1.397E3,1.9188E4,1.3379E4,1.1199E4,2.274E3,6.2362E4,6.0302E4,1.5743E4,1.9711E4,2.154E4,4.5656E4,2.4549E4,8.877E3,3.7573E4,3.2527E4,1.1718E4,4.321E3,1.589E4,1.5038E4,9.9E3,2.277E3,1.0587E4,1.4554E4,1.2176E4,8.786E3,1.7865E4,2.814E3,1.4587E4,5.172E3,1.5236E4,2.227E3,6.09E3,4.044E3,1.2396E4,3.545E3,6.345E3,6.876E3,4.412E3,1.422E3,5.844E3,4.761E3,1.86E3,4.935E3,3.585E3,3.012E3,8.57E2,1.698E3,6.47E2,6.36E2],"tree_param":{"num_deleted":"0","num_feature":"23","num_nodes":"127","size_leaf_vector":"1"}},{"base_weights":[-1.1905077E-4,-1.1504335E-1,6.293345E-1,-2.2397788E-1,8.878318E-2,4.7194904E-1,1.0956005E0,-2.3920488E-1,-1.321245E-1,4.8923876E-2,1.7689E-1,3.790546E-1,6.3851583E-1,9.603474E-1,1.5130553E0,-2.6291493E-1,-2.1581271E-1,-1.5010598E-1,-7.977811E-2,-9.486244E-3,7.0881486E-2,1.536848E-1,2.336081E-1,3.303304E-1,4.5961708E-1,5.7636994E-1,7.182189E-1,8.7825584E-1,1.1059263E0,1.406476E0,1.9025645E0,-2.5860035E-1,-3.1437337E-1,-2.0906441E-1,-2.5169602E-1,-1.3594785E-1,-1.8538585E-1,-4.4748534E-2,-1.0371219E-1,2.2830673E-2,-3.4727465E-2,8.5012235E-2,3.2573845E-2,1.7623655E-1,1.1801745E-1,2.640461E-1,1.8856464E-1,3.7824568E-1,3.0066454E-1,5.090671E-1,4.20793E-1,5.330579E-1,6.2373424E-1,6.692626E-1,7.705997E-1,8.248247E-1,9.4359565E-1,1.0620471E0,1.2039379E0,1.3383355E0,1.5422279E0,1.8136815E0,2.1871006E0,-2.7893594E-2,-2.4715645E-2,-3.7272528E-2,-2.9576018E-2,-2.2096505E-2,-1.913832E-2,-3.0214027E-2,-2.3768002E-2,-1.5260835E-2,-1.1453333E-2,-2.4344705E-2,-1.6587576E-2,-3.4604145E-3,-7.958494E-3,-1.4950317E-2,-8.319948E-3,-1.1717275E-3,3.9105355E-3,-7.091223E-3,-1.3608485E-3,6.742558E-3,1.1271355E-2,-1.4018184E-3,5.566127E-3,1.5611896E-2,2.0625014E-2,4.9590394E-3,1.376393E-2,2.361024E-2,2.9296873E-2,1.2049334E-2,2.1379234E-2,3.5674844E-2,4.2919185E-2,2.4894534E-2,3.3173557E-2,4.921244E-2,6.0229924E-2,3.529416E-2,4.532435E-2,5.8119275E-2,4.6654534E-2,6.437294E-2,4.8475076E-2,7.1666285E-2,5.8022905E-2,7.862719E-2,6.5799676E-2,8.8743456E-2,7.197226E-2,8.961389E-2,1.0099079E-1,1.1266773E-1,9.762231E-2,1.1476529E-1,1.2877028E-1,1.2259424E-1,1.3895069E-1,1.4629392E-1,1.6578107E-1,1.7415212E-1,1.9736691E-1,1.9973026E-1,2.5298187E-1],"categories":[],"categories_nodes":[],"categories_segments":[],"categories_sizes":[],"default_left":[0,0,0,0,0,0,0,0,0,0,0,0,0,0,0,0,0,0,0,0,0,0,0,0,0,0,0,0,0,0,0,0,0,0,0,0,0,0,0,0,0,0,0,0,0,0,0,0,0,0,0,0,0,0,0,0,0,0,0,0,0,0,0,0,0,0,0,0,0,0,0,0,0,0,0,0,0,0,0,0,0,0,0,0,0,0,0,0,0,0,0,0,0,0,0,0,0,0,0,0,0,0,0,0,0,0,0,0,0,0,0,0,0,0,0,0,0,0,0,0,0,0,0,0,0,0,0],"id":12,"left_children":[1,3,5,7,9,11,13,15,17,19,21,23,25,27,29,31,33,35,37,39,41,43,45,47,49,51,53,55,57,59,61,63,65,67,69,71,73,75,77,79,81,83,85,87,89,91,93,95,97,99,101,103,105,107,109,111,113,115,117,119,121,123,125,-1,-1,-1,-1,-1,-1,-1,-1,-1,-1,-1,-1,-1,-1,-1,-1,-1,-1,-1,-1,-1,-1,-1,-1,-1,-1,-1,-1,-1,-1,-1,-1,-1,-1,-1,-1,-1,-1,-1,-1,-1,-1,-1,-1,-1,-1,-1,-1,-1,-1,-1,-1,-1,-1,-1,-1,-1,-1,-1,-1,-1,-1,-1,-1],"loss_changes":[9.564398E4,2.4824412E4,1.4979039E4,1.0190547E3,1.3675476E3,2.3611836E3,2.9070742E3,3.4658984E2,9.751538E1,3.438719E2,1.5960571E2,3.8444238E2,2.702246E2,4.6403516E2,5.205625E2,6.883203E1,7.613281E1,3.849597E1,2.2207947E1,5.9755432E1,1.05479675E2,6.921875E1,4.823108E1,8.667432E1,7.067041E1,6.265918E1,6.086035E1,8.609961E1,5.904297E1,8.951367E1,6.444336E1,6.6578125E1,2.5964111E1,5.5680664E1,3.5135986E1,1.9618774E1,2.4974792E1,3.7983532E0,1.4771164E1,1.8062958E1,3.142997E1,6.934253E1,5.648741E1,3.1808716E1,4.476706E1,1.6912842E1,2.4366547E1,2.541211E1,6.0522705E1,2.5347168E1,4.539331E1,5.1101562E1,4.0430176E1,5.1825684E1,1.9876465E1,8.949902E1,3.430371E1,5.26875E1,1.8937012E1,3.625E1,2.783545E1,2.0425781E1,3.6512207E1,0E0,0E0,0E0,0E0,0E0,0E0,0E0,0E0,0E0,0E0,0E0,0E0,0E0,0E0,0E0,0E0,0E0,0E0,0E0,0E0,0E0,0E0,0E0,0E0,0E0,0E0,0E0,0E0,0E0,0E0,0E0,0E0,0E0,0E0,0E0,0E0,0E0,0E0,0E0,0E0,0E0,0E0,0E0,0E0,0E0,0E0,0E0,0E0,0E0,0E0,0E0,0E0,0E0,0E0,0E0,0E0,0E0,0E0,0E0,0E0,0E0,0E0,0E0,0E0],"parents":[2147483647,0,0,1,1,2,2,3,3,4,4,5,5,6,6,7,7,8,8,9,9,10,10,11,11,12,12,13,13,14,14,15,15,16,16,17,17,18,18,19,19,20,20,21,21,22,22,23,23,24,24,25,25,26,26,27,27,28,28,29,29,30,30,31,31,32,32,33,33,34,34,35,35,36,36,37,37,38,38,39,39,40,40,41,41,42,42,43,43,44,44,45,45,46,46,47,47,48,48,49,49,50,50,51,51,52,52,53,53,54,54,55,55,56,56,57,57,58,58,59,59,60,60,61,61,62,62],"right_children":[2,4,6,8,10,12,14,16,18,20,22,24,26,28,30,32,34,36,38,40,42,44,46,48,50,52,54,56,58,60,62,64,66,68,70,72,74,76,78,80,82,84,86,88,90,92,94,96,98,100,102,104,106,108,110,112,114,116,118,120,122,124,126,-1,-1,-1,-1,-1,-1,-1,-1,-1,-1,-1,-1,-1,-1,-1,-1,-1,-1,-1,-1,-1,-1,-1,-1,-1,-1,-1,-1,-1,-1,-1,-1,-1,-1,-1,-1,-1,-1,-1,-1,-1,-1,-1,-1,-1,-1,-1,-1,-1,-1,-1,-1,-1,-1,-1,-1,-1,-1,-1,-1,-1,-1,-1,-1],"split_conditions":[8.6E0,4E0,1.54E1,2.4E0,6.6E0,1.18E1,2.14E1,1.2529538E0,3.4E0,5.4E0,7.8E0,1.04E1,1.36E1,1.8E1,2.7E1,1.726E0,1.83E0,2.344E0,1.316E0,1.602E0,3.192E0,3.502E0,3.806E0,3.002E0,3.502E0,2.3847E2,2.3782E2,2.3776E2,2.3799E2,2.44E1,3.26E1,1E0,2.3979E2,1.8E0,2.3979E2,2.8E0,2.3976E2,5.6E-1,2.3996E2,4.6E0,2.3923E2,6E0,2.3904E2,7.171246E0,2.3799E2,2.3973E2,2.3805E2,5.439026E-1,2.3851E2,3.7E1,2.3776E2,4.482E0,2.514E0,4.898E0,2.514E0,5.042E0,1.66E1,5.254E0,1.96E1,2.3414E2,2.3554E2,2.3554E2,8.526E0,-2.7893594E-2,-2.4715645E-2,-3.7272528E-2,-2.9576018E-2,-2.2096505E-2,-1.913832E-2,-3.0214027E-2,-2.3768002E-2,-1.5260835E-2,-1.1453333E-2,-2.4344705E-2,-1.6587576E-2,-3.4604145E-3,-7.958494E-3,-1.4950317E-2,-8.319948E-3,-1.1717275E-3,3.9105355E-3,-7.091223E-3,-1.3608485E-3,6.742558E-3,1.1271355E-2,-1.4018184E-3,5.566127E-3,1.5611896E-2,2.0625014E-2,4.9590394E-3,1.376393E-2,2.361024E-2,2.9296873E-2,1.2049334E-2,2.1379234E-2,3.5674844E-2,4.2919185E-2,2.4894534E-2,3.3173557E-2,4.921244E-2,6.0229924E-2,3.529416E-2,4.532435E-2,5.8119275E-2,4.6654534E-2,6.437294E-2,4.8475076E-2,7.1666285E-2,5.8022905E-2,7.862719E-2,6.5799676E-2,8.8743456E-2,7.197226E-2,8.961389E-2,1.0099079E-1,1.1266773E-1,9.762231E-2,1.1476529E-1,1.2877028E-1,1.2259424E-1,1.3895069E-1,1.4629392E-1,1.6578107E-1,1.7415212E-1,1.9736691E-1,1.9973026E-1,2.5298187E-1],"split_indices":[2,2,2,2,2,2,2,2,2,2,2,2,2,2,2,16,16,16,16,16,16,16,16,16,16,1,1,1,1,2,2,2,1,2,1,2,1,15,1,2,1,2,1,2,1,1,1,14,1,3,1,16,15,16,15,16,2,16,2,1,1,1,19,0,0,0,0,0,0,0,0,0,0,0,0,0,0,0,0,0,0,0,0,0,0,0,0,0,0,0,0,0,0,0,0,0,0,0,0,0,0,0,0,0,0,0,0,0,0,0,0,0,0,0,0,0,0,0,0,0,0,0,0,0,0,0,0],"split_type":[0,0,0,0,0,0,0,0,0,0,0,0,0,0,0,0,0,0,0,0,0,0,0,0,0,0,0,0,0,0,0,0,0,0,0,0,0,0,0,0,0,0,0,0,0,0,0,0,0,0,0,0,0,0,0,0,0,0,0,0,0,0,0,0,0,0,0,0,0,0,0,0,0,0,0,0,0,0,0,0,0,0,0,0,0,0,0,0,0,0,0,0,0,0,0,0,0,0,0,0,0,0,0,0,0,0,0,0,0,0,0,0,0,0,0,0,0,0,0,0,0,0,0,0,0,0,0],"sum_hessian":[1.322152E6,1.118026E6,2.04126E5,7.28618E5,3.89408E5,1.52614E5,5.1512E4,6.25006E5,1.03612E5,2.68115E5,1.21293E5,9.7976E4,5.4638E4,3.8909E4,1.2603E4,3.10389E5,3.14617E5,7.7119E4,2.6493E4,7.3253E4,1.94862E5,8.6079E4,3.5214E4,6.1055E4,3.6921E4,3.0705E4,2.3933E4,2.4884E4,1.4025E4,9.899E3,2.704E3,2.86383E5,2.4006E4,2.64821E5,4.9796E4,5.5037E4,2.2082E4,1.0755E4,1.5738E4,3.2124E4,4.1129E4,1.42351E5,5.2511E4,5.2733E4,3.3346E4,2.1011E4,1.4203E4,2.3342E4,3.7713E4,1.6233E4,2.0688E4,1.6045E4,1.466E4,1.2378E4,1.1555E4,1.3697E4,1.1187E4,9.696E3,4.329E3,6.598E3,3.301E3,2.066E3,6.38E2,1.03119E5,1.83264E5,5.801E3,1.8205E4,1.58278E5,1.06543E5,1.0823E4,3.8973E4,3.0951E4,2.4086E4,5.551E3,1.6531E4,8.331E3,2.424E3,4.867E3,1.0871E4,1.0287E4,2.1837E4,1.5157E4,2.5972E4,8.7074E4,5.5277E4,1.7399E4,3.5112E4,3.1575E4,2.1158E4,7.432E3,2.5914E4,1.0691E4,1.032E4,3.842E3,1.0361E4,1.6421E4,6.921E3,1.4157E4,2.3556E4,1.3742E4,2.491E3,6.697E3,1.3991E4,9.304E3,6.741E3,1.2813E4,1.847E3,8.073E3,4.305E3,1.0138E4,1.417E3,8.579E3,5.118E3,6.529E3,4.658E3,5.524E3,4.172E3,2.598E3,1.731E3,2.072E3,4.526E3,1.966E3,1.335E3,1.432E3,6.34E2,4.15E2,2.23E2],"tree_param":{"num_deleted":"0","num_feature":"23","num_nodes":"127","size_leaf_vector":"1"}},{"base_weights":[-6.221816E-5,-1.0133701E-1,5.793107E-1,-1.9991681E-1,8.593951E-2,4.4013435E-1,1.0019935E0,-2.152984E-1,-1.14423245E-1,5.158008E-2,1.7305398E-1,3.5495487E-1,5.912868E-1,8.7299925E-1,1.3498379E0,-2.3661986E-1,-1.9425437E-1,-1.3500163E-1,-6.91466E-2,2.0634433E-2,8.240326E-2,1.4683929E-1,2.1430267E-1,3.0617008E-1,4.1850346E-1,5.3803235E-1,6.6841567E-1,7.909362E-1,9.7361577E-1,1.2728859E0,1.7774433E0,-2.599601E-1,-2.2811577E-1,-1.9107166E-1,-2.631011E-1,-1.24369584E-1,-1.8583421E-1,-5.1706057E-2,-1.1815163E-1,4.0234573E-2,-1.3668157E-2,1.2602232E-1,6.969735E-2,2.0991802E-1,1.3187748E-1,2.3451285E-1,1.4310066E-1,3.3371136E-1,2.5682506E-1,4.5619664E-1,3.70725E-1,5.689242E-1,4.6358272E-1,6.9628996E-1,5.6691825E-1,8.5382915E-1,7.4102837E-1,9.2415917E-1,1.048946E0,1.2082881E0,1.4263114E0,1.6871277E0,1.9659729E0,-2.562569E-2,-3.196248E-2,-2.2102384E-2,-2.5750075E-2,-2.1028053E-2,-1.8133251E-2,-2.5267188E-2,-3.8052246E-2,-1.1484541E-2,-1.611509E-2,-1.7259257E-2,-2.9393006E-2,-3.4597577E-3,-7.2194985E-3,-1.9163262E-2,-9.661938E-3,